400 20
SS -0.3805297 -0.263809 0.109031625 -0.6597922 0.08406857 0.33908334 0.42123315 -0.012605059 -0.10552128 -0.0137643 0.056154646 -0.19667086 0.4325045 -0.40290955 -0.09217256 -0.1831006 0.11642906 -0.69777983 -0.29193836 -0.42876086
EE 0.24438569 -1.1930356 0.08965526 0.21953255 0.34187233 -0.18773139 0.124280654 0.11902011 0.46140596 -0.3515659 -0.23466563 -0.08788547 0.1489456 -0.074215464 -0.14312027 0.009136206 -0.3397164 0.13975777 -0.5162702 0.5342326
AA -0.022875546 0.22301346 -0.61339295 0.48865822 0.19957943 0.39102197 0.6394643 -0.24211422 0.68974733 -0.35829988 -0.019301623 -0.19922957 0.3136631 -0.35256904 0.21145025 -0.267314 -0.3291752 -0.27232075 -0.64978975 0.42178476
KK 0.23684311 -0.53951705 0.20314853 -0.3674201 0.58129776 -0.34314346 0.5519712 -0.5763192 0.46612427 0.019980092 -0.5936266 -0.12801437 0.35744566 0.03085663 -0.04443151 0.26553553 -0.15047821 -0.31550193 -0.3049442 0.5320037
EK 0.32705367 -1.0143361 0.098537974 -0.050713178 0.05883912 -0.42655027 0.3974706 -0.28229225 0.4299361 -0.06890103 -0.42537206 0.015017873 0.22759569 -0.15559775 -0.24230579 0.21510881 -0.29466805 -0.2758332 -0.44160232 0.5543091
GG -0.30274677 0.03822557 0.43625376 0.109502956 -0.07897771 0.77556324 0.238291 -0.538434 -0.4893382 0.53355575 0.16630983 -0.29586244 0.024367033 -0.28594384 0.54445744 0.36464918 -0.5099799 0.1693722 -0.18096353 0.19137718
KE 0.11723564 -0.7839795 0.16951542 -0.0758533 0.7002506 -0.26788822 0.19814935 -0.15021867 0.40638924 -0.16682953 -0.49656704 -0.4544901 0.13303575 0.26169795 -0.061027896 0.30972403 -0.20883894 0.2162124 -0.44455594 0.41227794
EA 0.3198746 -0.6778084 -0.5527398 0.39407483 0.11720121 0.08063563 0.4239147 -0.13261776 0.45917633 -0.43327576 -0.096295655 -0.14583595 0.24288152 -0.31947166 0.014212674 -0.09520245 -0.5161342 -0.34249163 -0.30887696 0.4804251
SG -0.50556004 0.036920168 0.35013336 -0.1858142 0.22051792 0.48853886 0.121728264 -0.34731564 -0.4214675 0.14801182 -0.034815915 -0.48026448 -0.049344495 -0.41022807 0.16342178 0.006824699 -0.09685411 -0.23670153 -0.27868426 -0.11185276
AE -0.00059897284 -0.34111068 -0.1185142 0.19985512 0.32268205 0.044785846 0.34364036 -0.04483681 0.8451386 -0.4450391 -0.19305617 -0.19358414 0.108415954 -0.040019978 -0.08307586 -0.17861049 -0.13861121 0.3428493 -0.8874808 0.5306055
LL -0.20285326 -0.13870482 -0.31371075 -0.12842837 -0.007522832 -0.11914885 0.189497 -0.223451 0.061849065 -0.33579335 0.07460076 -1.0367261 0.019415218 0.11116057 -0.53252673 0.17243229 -0.31040886 -0.13730069 -0.4813796 -0.41252187
EL 0.10842294 -0.9040123 -0.23319611 0.07443409 -0.32453936 -0.054677088 0.21528007 -0.28676614 0.23713982 -0.36999646 0.056233853 -0.44262213 0.28243002 0.10719085 -0.3555965 0.2598163 -0.4588772 -0.13086076 -0.39097688 0.030225825
LK 0.1890706 -0.32437292 -0.10025191 -0.33999437 0.36044115 -0.27253538 0.2600592 -0.3483504 0.28431988 -0.09583536 -0.35920388 -0.54235125 -0.21501093 -0.121380575 -0.56490016 0.13802846 -0.30625 -0.27735388 -0.41776836 0.20591313
LE 0.089733176 -0.4634124 -0.03788574 -0.052779075 0.4384862 -0.25248167 0.027433028 0.10212344 0.28801748 -0.29477772 -0.141924 -0.7709508 -0.3997923 0.04533146 -0.56886715 0.1605274 -0.30465305 0.120353214 -0.64846593 -0.0026692909
LS -0.31621292 -0.2199038 -0.33009115 -0.6238846 0.12705077 0.3587876 0.23421901 0.20934072 0.077261545 -0.09498366 0.05428548 -0.55420685 -0.12124506 -0.06725502 -0.42127055 -0.011775558 -0.15808934 -0.39930275 -0.4101324 -0.368586
AS -0.39721832 0.04284673 -0.34552112 -0.42950776 -0.14054005 0.61392444 0.47323826 -0.068681344 0.4555308 -0.17063947 -0.04851856 -0.12569168 0.22423731 -0.11767227 0.06743487 -0.28278524 -0.06736513 -0.34807447 -0.68140894 0.062602766
KL -0.03259559 -0.53874224 -0.09638256 -0.18501467 0.21463908 -0.11432281 0.31675255 -0.59150726 0.16906035 -0.1630314 -0.25139183 -0.75679475 0.48432815 0.43672517 -0.1728437 0.46445575 -0.25509533 -0.030420033 -0.25154576 -0.02304481
GS -0.21711455 -0.33628464 0.22488439 -0.38265654 -0.33317584 0.6156509 0.34244397 -0.15920207 -0.35413048 0.41715747 0.13722102 0.071867175 0.36745685 -0.20355071 0.32759607 0.11855333 -0.40924567 -0.25465915 -0.2353804 -0.1532251
DE -0.2289784 -0.95985997 0.0724844 0.1211418 0.250844 -0.47894838 0.06796896 0.24030647 0.09843213 -0.2701414 0.23649377 -0.4203612 -0.11703433 0.29354373 0.33442834 -0.20794447 -0.45669767 0.16089085 -0.50904 0.36574155
KA 0.16705039 -0.24609032 -0.4902697 0.091388986 0.64557993 -0.023927262 0.54871595 -0.46505654 0.5017659 -0.12724008 -0.24070087 -0.36945316 0.29216266 -0.021417528 0.1112995 0.18779117 -0.34620366 -0.3355684 -0.16620068 0.40339574
SL -0.36538512 -0.21461181 -0.031773366 -0.31119293 -0.27396718 0.05220625 0.35593283 -0.4555938 -0.122164406 -0.26339296 0.119788125 -0.66607434 0.5169318 -0.06200144 -0.31241658 -0.027448809 -0.1125911 -0.42160726 -0.3027907 -0.4934677
SA -0.14762013 0.010374499 -0.41059637 0.087954395 0.16240071 0.28791496 0.48406854 -0.34145424 0.03563577 -0.1734868 0.07790497 -0.3131632 0.38795772 -0.547081 -0.069062695 -0.33358037 -0.15510021 -0.70959014 -0.2462692 -0.09337465
AK 0.13534708 -0.10548894 -0.1311405 -0.06841466 0.1134131 -0.036522254 0.54858255 -0.5586957 0.82684565 -0.13546005 -0.34894985 -0.13345273 0.16612715 -0.14810398 -0.07776131 -0.045501545 -0.17848991 -0.090839 -0.68786913 0.5301832
AL -0.17797624 -0.020827396 -0.39475983 0.1425594 -0.3810829 0.26355544 0.30623546 -0.45211792 0.5143747 -0.4148312 0.064627156 -0.5810635 0.2774331 0.08559971 -0.19060041 0.016449524 -0.36236778 0.04501262 -0.7018694 -0.041281503
LA 0.042931236 0.11412973 -0.7245614 0.15532164 0.28186947 0.09992499 0.31222963 -0.15789048 0.26466608 -0.33103985 0.0901533 -0.77651215 -0.20673051 -0.23932096 -0.33980197 -0.07756077 -0.48963636 -0.4118948 -0.39177516 0.03853136
ED 0.032844514 -1.0849423 -0.044578295 -0.16504711 -0.07988202 -0.2275267 -0.08561464 0.059684888 0.13306968 0.0041679274 0.1447545 -0.67288613 0.12069956 -0.48623127 0.16513516 -0.17120063 -0.16300249 -0.041007727 -0.3178998 0.6111668
SE -0.19889112 -0.69097364 0.30081886 -0.12649441 0.34677082 -0.12273813 0.07341225 0.070167765 -0.072630554 -0.30927944 0.013860548 -0.34318644 0.1775354 -0.36022714 -0.24632731 -0.25831518 -0.001894406 -0.14477389 -0.4175162 0.0033749822
SK -0.002787766 -0.42284736 0.31870124 -0.48817015 0.16920877 -0.2078798 0.43780723 -0.5927706 0.0132566765 -0.012913176 -0.31870818 -0.17556995 0.42642412 -0.33041173 -0.19417922 -0.18596087 0.037384458 -0.5942327 -0.32374755 0.08870465
KS -0.18390329 -0.4861393 -0.01169835 -0.67503506 0.4708748 0.20389108 0.4149429 -0.11717121 0.25148562 0.11023569 -0.2659005 -0.26068917 0.38029125 0.111040846 -0.016522434 0.33629712 0.045644954 -0.49471626 -0.257881 0.06491874
VE -0.07564633 -0.8733678 -0.0017338487 0.58081543 0.50558525 -0.26205778 0.07300102 0.03021504 0.17880757 0.3287048 -0.14416577 -0.17678784 -0.13029996 -0.10746449 -0.11126739 0.24948047 0.100157015 0.14185771 -0.9438287 0.06163782
DD -0.39585814 -0.9252125 -0.089456394 -0.1504303 -0.02872982 -0.40497726 -0.05894814 0.13917649 -0.15870747 -0.05418099 0.47786158 -0.90509886 -0.061333347 -0.07254999 0.5960331 -0.44161373 -0.21504807 -0.080215074 -0.41398683 0.45380536
ES 0.03753933 -1.0576652 -0.038504988 -0.47245112 -0.04299152 0.23471716 0.1764503 0.32908705 0.104197666 -0.17372741 -0.094546065 -0.09485588 0.24090241 -0.17697012 -0.07108774 0.07091695 -0.22006522 -0.4612279 -0.33821744 0.17223659
GK 0.22396208 -0.29413894 0.42020974 -0.13424772 -0.18054654 -0.018564397 0.5270742 -0.7515268 -0.08867559 0.4757206 -0.31779277 -0.079181455 0.35914728 -0.11613567 0.19594927 0.4223587 -0.44507077 -0.19298775 -0.2377338 0.40393034
KR 0.09130975 -0.51585937 0.32886907 -0.12819657 0.44064522 -0.08784459 0.62339145 -0.48928657 0.74006766 0.07506868 -0.18499982 -0.22682928 -0.33855912 -0.24616012 0.17828695 0.43996778 -0.10964298 -0.11832857 -0.038413916 -0.1406831
PS -0.5716924 0.19323379 -0.058324195 -0.71664387 0.42045468 0.08420491 0.48660648 0.30865556 0.08165984 0.31901833 0.1852455 -0.2220997 0.40912482 -0.1736429 -0.076284185 -0.25745946 0.07007649 0.07311693 -0.5809287 -0.54033613
RK 0.28455153 -0.37645653 0.49862707 -0.09510818 0.24456058 -0.28078327 0.497562 -0.52424604 0.61228997 0.19603966 0.108514175 0.008560677 0.06950747 0.09303675 -0.5410024 0.21304826 -0.5529833 -0.14409715 -0.16663618 0.01097791
RE 0.15278834 -0.5700947 0.4480099 0.21782973 0.33231747 -0.11576196 0.18614273 -0.085913636 0.6536478 -0.12794855 0.34485516 -0.30669618 -0.2084125 0.20526294 -0.5028216 0.083871536 -0.5721883 0.32871136 -0.3258771 -0.13350919
VS -0.39667794 -0.6395902 -0.32436112 0.08677944 0.114388846 0.46198782 0.19965084 0.10458988 -0.05677492 0.52312136 0.0042897775 -0.094462335 -0.003942216 -0.17452143 0.12343604 0.036418658 0.19064388 -0.3993389 -0.7520291 -0.3004459
SD -0.31291685 -0.5063125 0.16010603 -0.5133079 -0.07490775 -0.114671454 0.08744842 -0.07921849 -0.20080037 0.15897031 0.105372265 -0.80976737 0.18122377 -0.56184894 0.14643757 -0.46221477 0.16466074 -0.44851092 -0.34494293 0.254678
SR -0.17747687 -0.45175642 0.40518495 -0.291438 0.02216592 0.18257104 0.51626354 -0.42244512 0.23200318 -0.007908369 0.25383663 -0.18928023 -0.31791207 -0.7779875 0.016090024 -0.17156215 -0.0066982643 -0.34273666 0.03240749 -0.62272465
LR 0.038296506 -0.28549558 -0.11384043 -0.028293336 0.19074783 0.036568575 0.3309782 -0.22082919 0.6096338 -0.12389049 0.19370146 -0.6990933 -0.8061503 -0.37190315 -0.4324528 0.10251225 -0.30984887 -0.10603987 -0.22746624 -0.5402223
ER 0.27374706 -1.004058 0.19660842 0.16832882 -0.11173734 0.06065797 0.38798594 -0.18390249 0.7111205 -0.103658736 0.17689072 -0.06459629 -0.5188095 -0.50689656 -0.15031798 0.25744942 -0.4038076 -0.09647378 -0.08404088 -0.106269926
RS -0.1434492 -0.23568773 0.4535299 -0.4184385 0.039011635 0.42703885 0.4249946 0.101767436 0.33279875 0.095218286 0.58644295 -0.115096286 0.053530693 0.07805292 -0.3924497 0.05831011 -0.43327785 -0.29283667 -0.13234006 -0.5186653
AV -0.3173419 0.11439491 -0.32778373 0.4626899 0.039757695 0.36357522 0.027251003 0.04869546 0.5484957 0.13565536 0.25781894 -0.30108413 0.4138667 -0.08027566 -0.23499377 0.13133967 -0.42227536 -0.17511676 -0.77745867 0.6074549
EV -0.041235544 -0.77420837 -0.04731552 0.3438748 0.054420542 -0.13621007 -0.11622218 0.26005936 0.22136182 0.1484893 0.17133296 -0.18183212 0.51301795 -0.12801948 -0.34328747 0.39399678 -0.4779912 -0.2774944 -0.5248898 0.6071922
VL -0.2274221 -0.5095711 -0.3075553 0.45922017 -0.07489437 0.09883595 0.17233115 -0.50872785 -0.024947714 0.35662147 0.07576413 -0.62753874 0.094214655 0.09585377 -0.03172006 0.2966178 0.020708391 -0.12647146 -0.75641024 -0.5055723
DL -0.37869212 -0.56916416 -0.22755267 0.089287 -0.29549184 -0.3295197 0.22295272 -0.253866 -0.10474757 -0.2900092 0.44118977 -0.8251855 0.1524061 0.5261501 0.18866321 0.04233738 -0.5026563 -0.19947116 -0.4185932 -0.17624788
RR 0.066538386 -0.29265645 0.6135175 0.16514546 0.08704361 0.12029961 0.5436979 -0.25430003 0.6816399 0.05319807 0.6240202 -0.23038492 -0.51714814 -0.30625096 -0.288088 0.17067923 -0.49437672 0.04548772 0.012731574 -0.5835909
VA -0.042993907 -0.28792912 -0.74709314 0.7787752 0.34380403 0.14239831 0.37788743 -0.25343052 0.1258489 0.3021144 -0.017931594 -0.24123612 -0.052562073 -0.3878952 0.12068392 0.07953168 -0.08268828 -0.47746542 -0.71697295 0.024038868
AG -0.36880183 0.32814583 -0.096027344 0.14820266 0.11812538 0.7722982 0.22617692 -0.51730883 0.226073 0.01933587 -0.13530228 -0.4780335 -0.17909506 -0.15956917 0.33697632 0.01622296 -0.2860471 0.13815291 -0.57388455 0.44487175
KD -0.053724587 -0.5011062 0.10381655 -0.46606174 0.38063473 -0.20933966 0.0881871 -0.3787328 0.12601833 0.20493437 -0.23553266 -0.9086582 0.14915998 -0.13643534 0.22827144 0.08124964 -0.050443094 -0.0659561 -0.22967103 0.6911999
GL -0.08249119 -0.25092214 -0.009072991 0.17329271 -0.6187776 0.25216952 0.28910565 -0.5709855 -0.2894152 0.14676863 0.09534172 -0.54016566 0.5331883 0.12520356 0.043360062 0.36293915 -0.5789205 0.065771475 -0.3683308 -0.18471791
LV -0.25766745 -0.04048065 -0.16146807 0.22370933 0.23783182 0.03653899 -0.19992849 0.18856834 0.04183763 0.09567159 0.29450184 -0.81795216 0.027886298 -0.04493715 -0.7249846 0.3841367 -0.4120615 -0.38993433 -0.61440206 0.25292358
DS -0.5146616 -0.6707893 -0.09421596 -0.4493287 -0.047316067 0.01809037 0.1860514 0.31460652 -0.11998283 -0.024194542 0.4498156 -0.3760243 0.068141736 0.24712981 0.41130117 -0.14193435 -0.3122229 -0.51238364 -0.33227265 -0.11781186
VK 0.002916138 -0.6057833 -0.05229667 0.20434868 0.24157265 -0.28800985 0.35484672 -0.5475494 0.106679745 0.550786 -0.4011914 -0.06332677 -0.06117159 -0.26090354 -0.09862954 0.3116797 0.11479707 -0.20953068 -0.77325046 0.10475865
SV -0.46387905 -0.17700373 0.0757884 0.10709497 0.14819743 0.07266716 -0.0702156 0.0015174984 -0.23739566 0.22481626 0.3227167 -0.33492926 0.65608764 -0.36053333 -0.4590638 0.09444725 -0.1653648 -0.57434905 -0.45262578 0.2112987
RL 0.041222315 -0.3242238 0.24063928 0.18144317 -0.22519888 0.13283424 0.31126365 -0.41790423 0.3990393 -0.19179726 0.46840325 -0.66861135 0.20062861 0.37544137 -0.5348412 0.25064838 -0.56757885 0.0258196 -0.25412795 -0.60759676
GR 0.0074994215 -0.28279594 0.6055172 0.11705615 -0.3843337 0.35089606 0.5078453 -0.42752427 0.11434196 0.48459107 0.2963241 -0.07360648 -0.34710464 -0.5371082 0.36573297 0.29353738 -0.5692892 0.13114142 0.015593967 -0.33644477
GE 0.035555407 -0.6357997 0.43480584 0.26572388 -0.03781863 0.076989494 0.13877106 -0.062451076 -0.26198605 0.21481031 -0.03830607 -0.1542936 0.259411 -0.07520573 0.19535169 0.24771519 -0.46533623 0.29446438 -0.42617324 0.39488843
KV -0.19563924 -0.28022426 -0.04985284 0.24679181 0.5831549 -0.17046793 0.01749944 -0.16351563 0.27210093 0.37322077 -0.043177247 -0.4235849 0.66241926 0.20863189 -0.23111667 0.635077 -0.3217687 -0.28177294 -0.47109577 0.68405926
PP -0.8689144 0.3702664 -0.3269061 -0.07077968 0.3673273 -0.43188632 0.8046669 0.16384006 0.38420048 0.5326561 0.29421443 -0.10872905 0.83516383 -0.60078543 0.018652705 0.01748049 -0.16661382 0.49141395 -0.33600193 -0.57347035
GA -0.029560996 0.19579576 -0.29688597 0.3952814 -0.246984 0.54279417 0.61436975 -0.4778197 -0.137032 0.28176135 0.1607745 -0.16571243 0.37087697 -0.33644363 0.4433924 0.14765254 -0.6019293 -0.1929637 -0.24001041 0.27327198
LD -0.15115401 -0.32900393 -0.1293016 -0.32123312 0.08500553 -0.13951072 -0.043003093 0.02397594 0.095611885 -0.13745329 0.16111955 -1.258552 -0.39268905 -0.32903436 -0.23364006 -0.22232337 -0.10129046 -0.06598536 -0.4456137 0.10633531
VV -0.35093507 -0.37935528 -0.16016859 0.71222 0.29850587 0.019354567 -0.075028144 0.16516137 0.01664205 0.807242 0.21129046 -0.19315879 0.23135199 -0.17864342 -0.20208846 0.35867193 -0.119901836 -0.38498846 -0.8510633 0.23896855
TS -0.031745482 0.059626367 0.15113303 -0.58478516 -0.13347115 0.058865946 0.14424565 0.27376527 -0.12524745 -0.10508048 -0.20732798 -0.15888757 0.2768298 -0.49972397 0.25600234 0.3264899 -0.30731672 -0.5622771 -0.7985099 -0.3537984
LG -0.35355115 0.23595044 -0.008356629 -0.095860824 0.3508745 0.38746294 -0.0003513027 -0.29961243 -0.25439224 0.042681023 -0.1259245 -0.9518964 -0.56676626 -0.0454662 -0.19147766 0.2674397 -0.37507516 0.0012455091 -0.43887624 -0.02178492
DA -0.19328763 -0.30413255 -0.5418386 0.33658764 0.09038114 -0.15424356 0.47048822 -0.15040943 0.07063559 -0.28018567 0.3944122 -0.5109858 0.01692438 0.14905772 0.541641 -0.24199939 -0.50988615 -0.56473714 -0.3497079 0.2636612
ST -0.50258857 -0.10516032 0.2024748 -0.027322179 -0.15034889 -0.046741657 0.71215224 0.21871313 -0.49132586 -0.079922795 -0.48231155 -0.5071766 0.14738461 -0.35119513 -0.3396421 -0.070891045 -0.1045487 -0.5537935 -0.16780362 -0.17973624
SP -0.7488804 -0.12715249 -0.082734734 -0.25710648 -0.11153431 -0.24477117 0.74560857 -0.08528635 0.21249379 0.13039932 0.27545294 0.03635594 0.6655528 -0.6811859 0.011321758 -0.05016378 0.030467402 -0.4895417 -0.108530656 -0.4183761
EG -0.17669085 -0.5863144 0.083878905 0.04645777 0.14599785 0.37231857 -0.12679678 -0.032895923 -0.1440362 0.20274675 -0.29568303 -0.35686216 -0.18104626 -0.11886219 0.12261762 0.32028976 -0.44351196 0.10793617 -0.3672832 0.48301896
KG -0.2746001 0.015950384 0.19928488 -0.17222254 0.6769945 0.25133738 0.24039371 -0.66738063 -0.08642319 0.31510356 -0.4132612 -0.6040079 -0.03611375 0.06602598 0.17452393 0.5858923 -0.23869136 0.122759625 -0.1761835 0.42444655
RG -0.2472728 0.24793652 0.67232984 0.17064215 0.25063944 0.52171904 0.2751579 -0.4161923 0.07738004 0.32465917 0.4437573 -0.41936252 -0.36201245 -0.0064983065 -0.10904962 0.34823924 -0.63238746 0.20265315 -0.091449626 -0.22384776
EI -0.35021734 -0.87146574 0.12487703 0.031184547 -0.35553822 -0.23172784 -0.23472904 -0.12945138 0.5973662 0.15513042 -0.6019232 -0.2988297 0.21638672 -0.10276717 -0.04864397 -0.26113585 -0.68807197 -0.17570026 -0.21905485 0.08090172
DG -0.5997026 -0.27654344 0.10268008 0.035908233 0.12619103 0.14341795 0.08816651 -0.13024232 -0.39008412 0.12435291 0.24251918 -0.7350087 -0.41350433 0.2440346 0.54485524 0.09662871 -0.50691867 -0.07282908 -0.22810048 0.25659508
LP -0.7147305 0.0023466167 -0.4926966 -0.15502489 0.0068767634 -0.46886435 0.55304533 0.3075399 0.4048019 0.10008974 0.20853588 -0.39037836 0.20076302 -0.35082525 -0.27249292 0.19601047 -0.23734462 -0.2615049 -0.29147467 -0.4138294
GD -0.048448134 -0.48469457 0.22558543 0.015393853 -0.43451676 0.2487699 0.002751498 -0.2795765 -0.37050635 0.50248414 0.24876875 -0.74012667 0.194066 -0.4835756 0.4749357 -0.02393003 -0.28066558 -0.016631672 -0.29344165 0.5051243
RA 0.1656663 0.072731785 -0.15080254 0.40548238 0.12493611 0.143417 0.54503447 -0.32115108 0.6267167 -0.06775079 0.49565217 -0.3430067 -0.047039397 -0.022214405 -0.34750488 -0.018944552 -0.70729536 -0.33901802 -0.14228915 -0.17287682
AT -0.4162273 0.21430843 -0.16948064 0.46200642 -0.31356242 0.18617955 0.85747266 0.319371 0.20631938 -0.09969216 -0.562354 -0.39687654 -0.014391466 -0.11259709 -0.09185316 -0.10805479 -0.2696384 -0.1512861 -0.60858774 0.33719286
PA -0.22990929 0.5310767 -0.4947261 0.2183993 0.61451733 -0.11498111 0.77022195 0.03303027 0.37436417 0.21796598 0.103205584 -0.20715855 0.4384521 -0.32396966 0.00086843077 -0.35284442 -0.07865098 0.031306326 -0.70685446 -0.0034219215
VD -0.25480548 -0.7403724 -0.20767206 0.28591076 0.10540184 -0.09481335 -0.08363932 -0.19067581 -0.02032516 0.526759 0.08422063 -0.77910113 -0.15888856 -0.45631588 0.31029245 -0.15884665 0.31031948 -0.068262964 -0.8168203 0.20201127
AD -0.22177325 -0.15190408 -0.29162014 -0.09585187 -0.20074525 0.10953257 0.13509956 -0.13534914 0.47460833 -0.108537026 0.063914694 -0.88093656 0.024408482 -0.48328996 0.366476 -0.5482451 -0.016144231 0.11118589 -0.6898608 0.58996093
AR -0.004623523 -0.062779546 -0.058941334 0.1364979 -0.14392336 0.40966403 0.560096 -0.37234846 0.9980337 -0.20344378 0.122568294 -0.1837704 -0.53676033 -0.39738458 0.09354456 -0.15433541 -0.2817673 0.04804073 -0.50318533 -0.085510574
AP -0.6608868 0.119217925 -0.5009555 0.18770494 -0.15825187 -0.018895525 0.83512723 0.02506109 0.78877884 0.10725372 0.13357787 0.21164666 0.56034935 -0.47901744 0.20734759 -0.07400764 -0.18329804 0.019947855 -0.51282346 0.17789567
GV -0.28969738 -0.07554261 0.15057386 0.39020604 -0.26640743 0.16276152 0.032133702 -0.12583613 -0.34039402 0.65201443 0.25837237 -0.24561848 0.6828055 -0.09915713 0.007045303 0.5027661 -0.6797117 -0.009749423 -0.4221815 0.3984302
DK -0.13678564 -0.7016593 -0.0220083 -0.31350076 0.086713396 -0.64103776 0.39321604 -0.26138908 0.17453532 -0.018118352 0.027069861 -0.41407177 0.035579763 0.28923845 0.29784673 0.0033457035 -0.3627802 -0.35017693 -0.31771415 0.36604092
ET -0.062431153 -0.6776154 0.09281914 0.322775 -0.29697385 -0.16873254 0.68413395 0.4850332 -0.12818162 -0.12837136 -0.61376035 -0.30745912 0.021177031 -0.17750734 -0.39671922 0.21757719 -0.4175427 -0.29435906 -0.2026861 0.28987205
DV -0.48629344 -0.46135068 -0.1714419 0.3788962 0.045198746 -0.29149517 -0.13604134 0.275209 -0.13243786 0.13243936 0.602405 -0.57894665 0.32071406 0.2625893 0.14713284 0.18834718 -0.63106954 -0.36331454 -0.46518704 0.3995514
TL 0.1892967 0.022918778 0.10900982 -0.16106883 -0.33120462 -0.3413387 -0.006950966 -0.17578411 -0.060723636 -0.34485212 -0.2807947 -0.6612075 0.33124986 -0.17740268 0.07005606 0.6648713 -0.6190604 -0.26640484 -0.83190626 -0.49794555
TE 0.24070714 -0.29554036 0.37153777 -0.01941552 0.22697353 -0.5670815 -0.045923047 0.35748616 0.1260309 -0.25318217 -0.321055 -0.333281 0.07305998 -0.3858375 0.109285206 0.5003234 -0.3790537 0.083681464 -0.9692881 -0.070292346
LT -0.3292409 -0.10519173 0.065814644 0.14386986 0.014924424 -0.19101366 0.63944453 0.3270627 -0.1906689 -0.1594512 -0.50849444 -0.94081026 -0.400197 -0.049336247 -0.5450693 0.07966422 -0.2533854 -0.25231752 -0.2442018 -0.093897
KP -0.560631 -0.3194941 -0.13773455 -0.116488524 0.35147336 -0.5384475 0.84766364 -0.118875265 0.5952321 0.34421244 -0.24191694 0.11528893 0.7673348 -0.097846605 0.09413519 0.43706664 -0.09471775 -0.12861271 -0.10756615 0.14028509
TA 0.268938 0.34433907 -0.23123291 0.04230399 0.06364507 -0.16578566 0.28887948 -0.046758845 0.12978809 -0.35695788 -0.23231108 -0.27497494 0.23785512 -0.6227149 0.39550856 0.22639012 -0.5175267 -0.6033457 -0.8299451 -0.06096063
TG -0.031982604 0.43807724 0.39480385 -0.016456686 0.14873907 0.022484405 -0.09756634 -0.07667479 -0.23966818 0.22442853 -0.40972713 -0.5624073 -0.13032816 -0.42506322 0.4895207 0.7625273 -0.5436984 -0.13362643 -0.8011284 -0.033870216
TK 0.39867893 -0.03658608 0.32315332 -0.2025786 0.100413226 -0.610229 0.1704991 -0.21802163 0.22170882 0.06157529 -0.48689473 -0.15616034 0.21989384 -0.49453878 0.12603188 0.48468468 -0.40825158 -0.43862206 -0.83789563 0.106004305
KT -0.21165691 -0.19533283 0.22164439 0.07119102 0.2752569 -0.35200524 0.91075003 0.07329595 -0.029350044 0.046788227 -0.97883755 -0.61682165 0.20460364 0.20361075 -0.17537498 0.4561762 -0.22015351 -0.24290447 -0.09959258 0.30601162
LQ -0.47738138 -0.4573385 -0.5220286 -0.034365166 0.28821507 0.21334386 0.09397653 0.27077687 0.13198441 -0.6927237 -0.2583413 -0.5569392 -0.26242518 -0.13508222 -0.49218136 0.39158294 -0.6496858 0.1971449 -0.118977666 -0.46887732
VG -0.47671065 -0.14549413 -0.008370331 0.46040058 0.326962 0.5121296 0.012087388 -0.3084506 -0.32327113 0.70275664 -0.0628429 -0.45369777 -0.4136591 -0.24267109 0.27757978 0.36653262 -0.045591686 -0.03436787 -0.6602399 0.015472583
PE -0.33208397 -0.1724798 0.042229887 -0.10107091 0.6631548 -0.69173545 0.2943898 0.37830043 0.32630324 0.22478884 0.054391354 -0.32142776 0.1613261 -0.09122708 -0.269276 -0.14347349 -0.04536427 0.71820253 -0.8682882 -0.02095024
RV -0.12594153 -0.14643544 0.37472782 0.45228016 0.13160984 -0.0069359075 -0.016208665 0.14245914 0.41271508 0.4155078 0.7611851 -0.366977 0.14146027 0.1376219 -0.5600154 0.35214606 -0.7408888 -0.17636071 -0.33985946 0.056500655
IE 0.30122507 -0.5490062 -0.27072987 -0.28842524 0.25758207 -0.15169367 0.3573536 0.2941757 0.33944023 0.30618146 -0.26454213 -0.20965394 -0.26351276 0.30560344 0.32659766 0.09528887 -0.54484665 0.498204 -0.7300257 0.104761526
PV -0.533037 0.33287683 0.006708039 0.14128332 0.5573993 -0.22095521 0.1177012 0.35347012 0.17937313 0.69318914 0.36433947 -0.34900302 0.66537696 -0.14077072 -0.47793198 0.22659098 -0.13501121 0.084356695 -0.76804036 0.10184139
IS 0.0029295483 -0.51259655 -0.50236905 -0.88932157 -0.08990168 0.35565674 0.50592256 0.21696909 0.14787604 0.41724673 -0.10892086 -0.065115735 -0.11357644 0.209845 0.32911548 -0.16775149 -0.4064701 -0.0421134 -0.5016779 -0.2138616
SN -0.8509671 -0.19218117 0.059289824 -0.5300653 0.34993136 -0.035176784 0.05869161 -0.47935754 -0.5211565 -0.24719408 -0.12242622 0.17608102 0.008743486 -0.17580256 -0.40869188 -0.066284046 -0.28086293 -0.5894638 -0.5081207 -0.18154319
TV 0.05597184 0.19827032 0.20720564 0.3289075 0.07380543 -0.31199577 -0.27168941 0.27620992 -0.0041086455 0.16748005 -0.018021755 -0.3196412 0.47723058 -0.43677124 0.005009907 0.7418569 -0.65701735 -0.3858721 -0.9571234 0.1265947
EN -0.42051667 -0.8318414 -0.12368116 -0.16093428 0.33542183 -0.17044872 -0.18100993 -0.25321308 -0.15107086 -0.32556933 -0.3461641 0.4416705 -0.16982386 0.14240208 -0.35172233 0.07222115 -0.67078567 -0.4124322 -0.69040745 0.2457527
PG -0.6489935 0.63483757 0.15396929 -0.1148379 0.5415097 0.037772655 0.38282552 -0.14478251 -0.118450105 0.713049 0.11539512 -0.56975543 0.0381166 -0.23833624 0.17375869 0.08053672 -0.15510514 0.5712126 -0.48219267 -0.15996574
KI -0.49120492 -0.5131216 0.17867848 -0.23797436 0.20704834 -0.28766713 -0.03460358 -0.4759976 0.6209777 0.37000412 -0.84323764 -0.55977505 0.2841212 0.1759268 0.10105285 -0.007548651 -0.5163376 -0.063326225 0.03359646 0.075032786
GT -0.27797046 -0.08365683 0.36165857 0.38245073 -0.49039328 0.08968836 0.7515443 0.045660194 -0.63346285 0.41584465 -0.47405413 -0.31844094 0.14911662 -0.0014251807 0.032308284 0.2990395 -0.5847874 -0.12587917 -0.20967954 0.085642576
PK -0.119220026 0.154958 0.19250374 -0.43452 0.5241559 -0.6982109 0.6838906 -0.22045146 0.47830755 0.56246823 -0.23238862 -0.11966184 0.40257528 -0.09126684 -0.2506206 -0.1400807 0.07331968 0.11108127 -0.74097025 0.11816236
SQ -0.8003732 -0.4831128 -0.252563 -0.22335997 0.14303477 0.40830737 0.24835348 0.08539429 -0.19407558 -0.5808855 -0.23168322 -0.20430695 0.29578894 -0.42569116 -0.106868446 0.1928218 -0.3652139 -0.02545354 0.10274849 -0.5875154
IL 0.19645333 -0.38194433 -0.5019298 -0.4400942 -0.3091137 0.048193205 0.3281665 -0.15538794 0.106828086 0.31174925 -0.066488445 -0.54354537 0.05941161 0.52095777 0.27992606 0.19349696 -0.6276807 0.13438103 -0.67174673 -0.4449214
PL -0.5174193 0.23064746 -0.26035386 -0.14522627 0.12725005 -0.3773155 0.4834552 -0.113382205 0.11030363 0.2521002 0.29224315 -0.84235555 0.5373402 0.14884399 -0.35007408 -0.061208807 -0.050599054 0.40661043 -0.65844893 -0.5625021
VT -0.39030394 -0.32024676 0.002391936 0.76802963 -0.0031032828 -0.12392244 0.69514173 0.28275374 -0.29774123 0.51192355 -0.5450516 -0.4247983 -0.22350994 -0.15464781 -0.06548447 0.27535343 0.06073388 -0.25862575 -0.6519462 -0.16809425
NS -0.111624666 -0.3919991 -0.08222407 -0.6017972 -0.40134132 0.14819485 0.21161638 0.22141398 -0.34355015 0.25785637 0.1638735 0.2573461 -0.046965156 -0.3091941 -0.4038796 -0.59207 -0.48364338 -0.25797004 -0.79246527 -0.2081066
NL 0.06123027 -0.348769 -0.13078849 -0.043525126 -0.6625281 -0.07372984 0.15474124 -0.36609843 -0.307083 -0.039645303 0.16507642 -0.29272285 0.026209513 0.032109417 -0.7402403 -0.2909899 -0.59157884 -0.021636104 -0.9310416 -0.3877248
AI -0.56659484 0.059367537 -0.15583849 0.10595506 -0.37379533 0.12389723 -0.047896184 -0.32195118 0.91282713 0.112632014 -0.5914046 -0.46385932 0.066238254 -0.10462517 0.072782926 -0.52752644 -0.6542548 -0.14668827 -0.45336086 0.09898649
RD 0.062338747 -0.33594278 0.48967662 -0.06953369 -0.012768175 -0.09047706 0.081287146 -0.1338566 0.42301416 0.1770893 0.7563551 -0.8385467 -0.24282557 -0.23777431 -0.25083193 -0.27257735 -0.40390432 0.04626396 -0.15238114 0.08275642
VP -0.72876483 -0.43691435 -0.41769105 0.40664783 -0.038869135 -0.26643386 0.52819806 0.14444058 0.23538649 0.69670904 0.048851706 0.15067331 0.2462992 -0.40803888 0.1985673 0.24972405 0.061904848 -0.11580535 -0.65232444 -0.3567469
QL 0.2960864 -0.48430055 -0.24808939 -0.20458104 -0.2585345 0.43120968 0.19349459 -0.31705108 0.016212538 -0.18360013 -0.22389258 -0.7712159 0.5797655 -0.30747777 -0.6416929 0.17296618 -0.28970155 0.4732766 -0.37667358 -0.3235737
IA 0.38951448 -0.09932871 -0.95709175 -0.043489728 0.074944735 0.16465206 0.5424846 -0.124578625 0.29893708 0.26758662 -0.14191972 -0.24920736 -0.21740612 0.06416637 0.5103965 -0.00055281434 -0.7471873 -0.09692169 -0.5899856 -0.011350449
DR -0.31516764 -0.6494561 0.21678843 0.019635396 -0.076678574 -0.23578624 0.4525168 -0.16880399 0.2971307 0.061097853 0.68429285 -0.4186959 -0.7464979 -0.11597164 0.4488028 -0.00061502244 -0.45396397 -0.21008123 0.013053087 -0.2670485
SI -0.7739963 -0.20796901 0.2128075 -0.42900994 -0.31524813 -0.09560596 0.07319015 -0.43842807 0.27367374 0.33817276 -0.5132276 -0.51303726 0.27252647 -0.25498366 0.0115771815 -0.5260971 -0.32114357 -0.4622966 -0.048766293 -0.40485215
VR -0.13848585 -0.6158555 0.046274647 0.54551893 0.091861494 0.15153426 0.37345698 -0.20078278 0.44614705 0.5920936 0.19271694 -0.106859274 -0.75455004 -0.541114 -0.05442516 0.31175253 0.014594882 -0.05386088 -0.5313077 -0.51133615
LN -0.6670345 -0.024684105 -0.28983533 -0.34743956 0.44823128 -0.07904526 -0.0654105 -0.33865225 -0.23493987 -0.3995313 -0.14867444 -0.28551403 -0.5763938 0.16188666 -0.6822887 0.09138838 -0.56497395 -0.33014372 -0.677155 -0.09024892
GN -0.56185514 -0.15374203 0.16226164 -0.18286698 -0.052526146 0.29359704 0.08212936 -0.6664827 -0.6083202 0.12318217 -0.14026605 0.4518055 -0.060752794 0.13299061 -0.02259648 0.2804309 -0.8391027 -0.25697482 -0.49563894 0.17543623
TT -0.07199282 0.30857354 0.31756452 0.11824155 -0.1941302 -0.35239604 0.5189395 0.4927436 -0.34504235 -0.02491418 -0.7305209 -0.50762916 0.07906284 -0.50598156 0.10256933 0.44097286 -0.51178294 -0.4095072 -0.5858368 -0.2408612
NG -0.09849333 0.013857181 0.221153 -0.019115042 -0.2760907 0.42822832 -0.075876415 -0.23693362 -0.63099056 0.477271 -0.06056689 -0.059313208 -0.54801816 -0.29333904 -0.32807076 -0.27116475 -0.5784023 0.07731177 -0.9818331 0.09540632
QK 0.6175706 -0.41515428 -0.11501536 -0.45496967 0.19627528 0.09778217 0.22797859 -0.41617355 0.16229708 0.1474729 -0.71650624 -0.28124133 0.3549541 -0.6016423 -0.7300107 0.110127084 -0.35340947 0.25173238 -0.39640334 0.069355406
KQ -0.4031759 -0.617582 -0.338212 -0.13870563 0.5328229 0.15774095 0.32092857 -0.15750982 0.27971828 -0.40829405 -0.637469 -0.18789291 0.1992897 0.12006274 -0.089583024 0.75283 -0.6161267 0.2644595 0.12431795 -0.10823436
QS 0.101072066 -0.41563022 -0.19431168 -0.6842159 -0.01944601 0.7744277 0.29829857 0.18122791 -0.14259999 0.086307034 -0.20784387 -0.34262586 0.47035447 -0.6217665 -0.48058394 -0.060840145 -0.10928259 0.22060716 -0.25945973 -0.37064353
LI -0.5956882 -0.1333456 -0.03552702 -0.24402642 -0.16017723 -0.07527346 -0.17416354 -0.24809483 0.4484216 0.119171105 -0.51802415 -0.85987824 -0.24542138 -0.010361123 -0.30686235 -0.26534715 -0.6556593 -0.11255672 -0.19519736 -0.2553782
QE 0.4760394 -0.73020107 -0.036361642 -0.05629522 0.4202323 0.17623857 -0.03963437 -0.0024236448 0.21049666 0.06019465 -0.46071282 -0.4195745 0.17042208 -0.45174742 -0.66051763 0.07962464 -0.27453247 0.7103115 -0.54379904 -0.016428318
QQ -0.24460436 -0.46757072 -0.63207805 -0.20349863 0.21610698 0.5983814 0.13012682 0.22613797 -0.032190043 -0.32081878 -0.5193153 -0.28445834 0.4074991 -0.6962578 -0.61134946 0.2888661 -0.6999608 0.92327714 -0.008112724 -0.6346944
IK 0.48953164 -0.53304034 -0.30142218 -0.6703794 0.14644547 -0.22154388 0.50109184 -0.29411483 0.34700438 0.4956912 -0.5251073 -0.05064544 -0.16425945 0.22607958 0.25780034 0.0817519 -0.5476074 0.012248887 -0.59438807 0.15673758
QA 0.48419404 -0.16041856 -0.73292565 0.13925552 0.20907693 0.5717116 0.34494418 -0.18332224 0.16261101 -0.08976948 -0.29680645 -0.44994083 0.38746884 -0.7808948 -0.4676151 -0.082709126 -0.4245572 0.28600794 -0.2949512 -0.00062885723
RP -0.62187946 0.046421174 0.254059 0.14536917 -0.0721823 -0.18685228 0.81712794 -0.018059224 0.49160686 0.31230032 0.65478045 0.3288794 0.37460697 -0.23329894 -0.2985888 0.20578705 -0.5677975 -0.01262142 0.010470978 -0.6404084
TP -0.28904164 0.18286318 0.01704405 0.039925605 -0.1469743 -0.61383617 0.5391483 0.34078822 0.29823625 0.002705824 -0.043051764 0.07345776 0.61349523 -0.74905485 0.3928381 0.52822095 -0.3441429 -0.2520805 -0.6872912 -0.37650138
GI -0.5575268 -0.31372857 0.27578706 0.035766013 -0.59234667 0.14962918 -0.015632097 -0.46443778 0.08923544 0.6916818 -0.47434786 -0.36446756 0.44180697 0.013076496 0.3320345 -0.14566998 -0.77736837 0.06490364 -0.07337655 -0.05757529
NK 0.45097682 -0.41727918 0.2070506 -0.28927305 -0.30751735 -0.42934257 0.32668236 -0.47740194 -0.046347756 0.20276396 -0.22783975 0.19661306 -0.13889612 -0.29088503 -0.70135206 -0.2640484 -0.48426098 -0.18516749 -0.9461859 0.21014473
SF -1.0087309 -0.30057353 0.5897184 -0.7172489 -0.42173892 0.13815193 0.19842467 -0.29682186 0.005939533 -0.21937844 0.13755709 -0.3368234 0.19308731 -0.45391607 -0.23508723 0.2808589 0.17548795 -0.051840123 -0.429743 0.03431374
NE 0.17747311 -0.72662103 0.11089997 0.07633534 -0.14795487 -0.2642893 0.017042197 0.0167115 -0.1319461 0.026912779 0.08908496 -0.0044626244 -0.31434494 -0.06412606 -0.6138221 -0.46685567 -0.5029831 0.38500395 -1.0523437 0.10360681
EQ -0.22780432 -1.122035 -0.3737555 0.08000298 0.08639307 0.2231527 0.1853339 0.29133028 0.21721235 -0.6129048 -0.33825582 -0.04318462 0.11831577 -0.17402105 -0.28866136 0.46898922 -0.6537901 0.1210691 -0.021896236 -0.033022
KN -0.54229987 -0.23678274 -0.030669322 -0.3830969 0.7712246 -0.26082578 0.08332787 -0.6587023 -0.006736228 -0.020278594 -0.533366 0.10198052 -0.06525884 0.4103921 -0.25244617 0.3624977 -0.51750433 -0.34557995 -0.49098456 0.21375576
FS -0.072573304 -0.28236583 -0.2619172 -0.828357 -0.015197054 0.19688116 0.81997436 -0.02991195 -0.5545103 -0.12529016 0.5707088 -0.13189924 -0.108180575 -0.29579207 0.097358055 0.43493396 -0.01599626 -0.08689008 -0.53328675 -0.13320488
DP -0.84381694 -0.40807918 -0.3762378 -0.042344194 -0.2520879 -0.764492 0.649958 0.23839806 0.19766237 -0.015569398 0.55984366 -0.14308128 0.26473555 -0.042674147 0.39877278 0.049014874 -0.50656116 -0.17658995 -0.18290058 -0.09213561
IG -0.0928716 0.078649186 -0.21256056 -0.38636243 0.16092655 0.48394093 0.29987365 -0.15884987 -0.07946506 0.8084642 -0.23135759 -0.3319523 -0.5472768 0.3014722 0.5517318 0.22720005 -0.61407125 0.31893346 -0.6052078 0.00786518
ID 0.14185709 -0.52754545 -0.4271852 -0.5909121 -0.1174272 -0.20353216 0.07627428 0.13561705 0.12756829 0.5509842 -0.08537962 -0.76362205 -0.30681968 -0.030278793 0.6882881 -0.2371159 -0.38971615 0.23244917 -0.71640205 0.17496303
IV 0.053993378 -0.23233247 -0.46287647 -0.12296829 0.03311795 0.1244173 0.048603427 0.47594166 0.16134661 0.8349581 0.13163225 -0.27187344 0.14664693 0.36233488 0.16144687 0.36915463 -0.7967637 0.12727277 -0.7277091 0.23604693
DI -0.764319 -0.5492273 0.07797218 -0.0768831 -0.32893613 -0.43153524 -0.055736188 -0.1211403 0.29324114 0.1960241 -0.2672289 -0.73193675 0.0072614336 0.32189748 0.4825148 -0.2968513 -0.69196194 -0.2503922 -0.1200017 -0.08599401
EP -0.39157265 -0.83180076 -0.32976797 0.11404622 -0.1941961 -0.6122845 0.6341232 0.3087349 0.51917475 0.21620409 -0.01685941 0.35086724 0.76054686 -0.41280994 0.0075815516 0.17420793 -0.19614427 -0.17792849 -0.4267093 0.1626971
NA 0.29784334 -0.039477862 -0.5394146 0.17140226 -0.3275684 0.11802962 0.3761222 -0.2613116 -0.17526744 -0.02848149 0.07536672 0.1834559 -0.14213017 -0.46908033 -0.4239114 -0.552145 -0.73960567 -0.27612606 -0.86563075 0.04757857
PT -0.6066202 0.48019785 0.09069272 0.06782466 0.2524284 -0.47644928 0.97499776 0.5060353 -0.07867431 0.39159027 -0.45391166 -0.49948156 0.1417453 -0.126668 -0.3583476 -0.15303725 -0.1108858 0.18220729 -0.49629113 -0.31498122
GP -0.5749951 -0.065457165 -0.010737993 0.17038566 -0.4354946 -0.008715647 0.7004263 -0.2433154 -0.09258337 0.68387645 0.2186474 0.24061422 0.6748401 -0.4303396 0.45095006 0.3485931 -0.56206393 0.14647225 -0.07716322 -0.1013362
FG -0.21443357 0.07202743 0.07220365 -0.2755154 0.17466289 0.30046764 0.7069475 -0.39411506 -0.7720347 0.043755304 0.51804155 -0.46769026 -0.41772282 -0.3496725 0.207057 0.72273797 -0.034666453 0.3427139 -0.5419723 0.045546684
NV -0.04935318 -0.24195573 -0.013766832 0.2212814 -0.30075473 -0.07549615 -0.15539053 0.13312261 -0.2579367 0.5448985 0.32373005 0.10245015 0.19164477 -0.16448233 -0.74897426 -0.23612654 -0.7158956 -0.14060141 -1.0041206 0.35024807
QR 0.4171296 -0.5104196 0.046290133 -0.18271223 -0.10571465 0.46663734 0.394317 -0.23862703 0.44069725 0.18263371 -0.15937248 -0.4312655 -0.20404173 -0.91052455 -0.4616731 0.1782251 -0.29703784 0.5895615 -0.04115705 -0.5404358
AN -0.736008 0.20992033 -0.4731173 -0.0648893 0.26058033 0.21386972 0.090295054 -0.5562814 0.20607764 -0.28885955 -0.26289803 0.3157982 -0.25248605 0.10360943 -0.27017665 -0.12818365 -0.63023823 -0.19590063 -0.91069967 0.31203237
AQ -0.585687 -0.19069748 -0.66526145 0.2475238 0.047603752 0.61995333 0.29248378 0.011035143 0.5601525 -0.691707 -0.3445037 -0.103362195 0.13008179 -0.1785778 -0.08238939 0.2340236 -0.62040305 0.3295757 -0.29879627 -0.26615605
PR -0.33610684 0.2601457 0.3161332 -0.17971037 0.3451611 -0.21647231 0.66653806 0.009223184 0.6512415 0.5484029 0.43009013 -0.20533513 -0.42223585 -0.49749187 -0.04719843 -0.15728375 -0.041589875 0.3693525 -0.47775987 -0.7087353
VI -0.6795969 -0.4120537 -0.020531844 0.4373669 -0.09936481 -0.03282883 -0.26761115 -0.27371418 0.2928655 0.8662575 -0.63726604 -0.40207013 -0.028601564 -0.18451335 0.20748316 -0.11668037 -0.36537582 -0.19583187 -0.5043098 -0.27375272
IR 0.3561763 -0.42637596 -0.23677601 -0.36695927 -0.108224675 0.043331616 0.57918066 -0.115110576 0.6337039 0.39106637 -0.07519685 -0.20500804 -0.80393505 -0.03992383 0.31365934 0.13931029 -0.6122674 0.2251065 -0.4255026 -0.5551073
RI -0.34859055 -0.23552665 0.70489424 0.15766406 -0.18286277 -0.059052236 -0.12847124 -0.3362424 0.76354104 0.35692906 -0.2709316 -0.38610658 0.002246167 0.12789162 -0.35872707 -0.22578196 -0.98659295 -0.023914983 0.0420369 -0.5416851
GF -0.82527024 -0.17747578 0.56868607 -0.3251219 -0.7503657 0.3976033 0.29257262 -0.3557655 -0.15778926 0.2013119 0.21854344 -0.07783896 0.2106826 -0.27914885 0.10241423 0.6844767 -0.36020243 0.4579103 -0.40177238 0.28028667
RT -0.1268764 0.0731909 0.55560076 0.37324446 -0.13767007 -0.11033779 0.87518626 0.28678286 0.14075561 0.082444966 -0.053923715 -0.40011767 -0.27471226 0.14495423 -0.5904641 0.21081874 -0.69418967 -0.20211932 -0.03415051 -0.22694035
PD -0.48461804 0.05346558 -0.19987708 -0.32869384 0.3321095 -0.38394797 0.054400537 0.1381257 0.14703958 0.61345935 0.20441191 -0.8862351 0.10038808 -0.36923718 -0.047676906 -0.5018899 0.040967673 0.46722415 -0.682407 -0.0027546214
DT -0.5249832 -0.3935434 0.10095944 0.24240531 -0.18644834 -0.51793194 0.6792534 0.47731537 -0.36842486 0.026601883 -0.22396758 -0.70646054 -0.18329199 0.28086257 0.2150398 -0.02473995 -0.5448469 -0.28814247 -0.12000163 0.121980146
TR 0.26084065 -0.020497352 0.5280076 -0.03390178 -0.13942334 -0.28397807 0.2590463 0.014085809 0.4597628 -0.12912884 -0.043669064 -0.2911335 -0.47951633 -0.7501255 0.27502084 0.58017 -0.4603208 -0.20470816 -0.59835804 -0.656332
VN -0.7734862 -0.41872963 -0.3772432 0.23823093 0.5240911 -0.079328924 -0.114248626 -0.45428205 -0.3365695 0.302478 -0.14163195 0.31366435 -0.4573096 0.029358268 -0.19362766 0.21510297 -0.2740976 -0.39249042 -1.0061948 -0.11006973
TD 0.11356002 -0.10162405 0.16348307 -0.23724364 -0.094054915 -0.44969562 -0.19097832 0.19230191 -0.090677 -0.13566038 -0.10756835 -0.8451425 0.12248604 -0.8364343 0.5164158 0.118935905 -0.20365009 -0.08122399 -0.8964217 0.15728678
QG -0.010505922 0.036924858 -0.04556368 -0.28365314 0.24372372 0.85253096 -0.01335706 -0.117264256 -0.39312193 0.44990903 -0.40968338 -0.633214 0.0432319 -0.65161186 -0.29362524 0.23586023 -0.3675856 0.65185004 -0.2543391 -0.08266969
FL 0.006848276 -0.23325719 -0.25125003 -0.27302063 -0.16205135 -0.24927145 0.84306425 -0.48770797 -0.38000858 -0.23410203 0.60351145 -0.5407042 0.0710404 0.042068776 -0.27834323 0.5918492 -0.10843714 0.21657915 -0.647053 -0.37456992
IP -0.33347967 -0.3253852 -0.67493486 -0.37218055 -0.25126776 -0.34605289 0.73750293 0.3894016 0.20474038 0.6810016 -0.15474567 0.16714728 0.2558632 -0.04773087 0.549901 0.12260289 -0.58343166 0.34358382 -0.4746694 -0.29809117
RN -0.5527423 -0.028982086 0.42611888 -0.12918098 0.39621073 -0.13613221 0.10076567 -0.45111826 0.08495239 -0.055461653 0.28912055 0.36405566 -0.4784575 0.4227504 -0.6241923 0.20970246 -0.9441409 -0.24977495 -0.44242662 -0.33264878
NP -0.2939405 -0.29183206 -0.2798116 -0.10859276 -0.5649622 -0.57614166 0.5897032 0.03241282 -0.033382535 0.2981666 0.16091292 0.58193445 0.25830656 -0.52668715 -0.44068345 -0.32301793 -0.5771214 0.02855139 -0.7540979 -0.23022786
DN -0.8617401 -0.48234355 -0.22890387 -0.23299877 0.28928992 -0.5475669 0.010672692 -0.21165396 -0.33238086 -0.19107415 0.21875079 0.078635626 -0.4679127 0.510329 0.15603764 -0.09506693 -0.77714735 -0.45229515 -0.619094 0.17602555
NR 0.19575022 -0.36664295 0.21526471 -0.085106 -0.44884363 0.12859578 0.33688197 -0.21411914 0.11611022 0.09669189 0.33054137 0.2430918 -0.7555149 -0.6272298 -0.48464584 -0.38523313 -0.54375 -0.014578773 -0.7153589 -0.48295233
MA 0.33195132 0.018425468 -0.49977538 0.43194818 0.360588 -0.06616616 0.5140866 -0.6693616 -0.18159749 -0.3472045 0.015986068 -0.18588363 0.34695444 -0.27057028 0.33768675 -0.6058672 -0.68475896 0.15247793 -0.46597838 -0.12643583
LF -0.8550884 -0.0741824 0.12928733 -0.5431344 -0.31839502 0.036075514 0.13891497 -0.07589753 0.35754824 -0.2829856 0.122874066 -0.7252245 -0.35473388 -0.16068229 -0.48757622 0.55998 -0.13509111 0.18667446 -0.6173798 0.060215175
ND 0.06717413 -0.5295222 0.11029953 -0.15943255 -0.4559997 -0.23218411 -0.08195927 -0.004723057 -0.33006752 0.32280028 0.24290295 -0.42905873 -0.3630301 -0.49615157 -0.2981524 -0.7790388 -0.3143622 -0.02087339 -0.9601556 0.319304
GQ -0.55191594 -0.47344863 -0.09946065 0.17632762 -0.23121403 0.5507547 0.22212791 0.004403108 -0.34809077 -0.066888265 -0.24377611 0.042612858 0.2718822 -0.20588492 0.17714044 0.7062185 -0.9179797 0.3575787 0.11057099 -0.22048524
QV 0.13500716 -0.2047018 -0.15336283 0.10017248 0.16160977 0.42946437 -0.18015994 0.28586698 -0.03257438 0.45063242 -0.13230258 -0.42879185 0.6016037 -0.5689569 -0.79340875 0.33799303 -0.4947886 0.35812622 -0.4653709 0.17839439
VQ -0.6909529 -0.66168696 -0.6178634 0.52731204 0.27494073 0.4310966 0.052975923 0.1800834 -0.006468824 0.03297032 -0.34174713 -0.11368608 -0.10667219 -0.23549423 0.03424643 0.58607423 -0.28200153 0.26426935 -0.472922 -0.5752154
RQ -0.3681494 -0.5003667 0.0351105 0.2725055 0.26405475 0.4469278 0.326991 -0.060482018 0.5115811 -0.40275884 0.1797773 -0.13846172 0.004641676 0.20948075 -0.43372542 0.43644303 -0.84121245 0.37223402 0.19061273 -0.572352
TI -0.29499528 0.109166786 0.440801 -0.1478846 -0.3473574 -0.5192274 -0.3151499 -0.03296231 0.29591966 0.21972434 -0.8367003 -0.53404313 0.118536055 -0.35816404 0.37181824 0.19057387 -0.8124375 -0.37969673 -0.6490998 -0.39669627
EF -0.5973105 -0.83351016 0.35440108 -0.35629332 -0.4660957 -0.054870557 0.076816455 -0.0689071 0.41783315 -0.31019843 0.11401192 -0.15368713 0.022153107 -0.29257774 -0.25666392 0.59352505 -0.18269601 0.32575297 -0.52877384 0.49186292
FD 0.020393375 -0.49719685 -0.13473235 -0.4656145 -0.08022475 -0.31097645 0.5753865 -0.24370271 -0.47609738 -0.041480377 0.6450012 -0.84752196 -0.28141975 -0.38202864 0.19718274 0.17780373 0.18762402 0.25594383 -0.67836696 0.29924613
FE 0.20297067 -0.65898746 -0.012985437 -0.24647155 0.327138 -0.40538543 0.71138096 -0.13042364 -0.3203898 -0.21109691 0.31031027 -0.3602606 -0.1908268 -0.06579719 -0.0946965 0.55987626 -0.02165847 0.6135647 -0.6757709 0.23606446
AF -0.71726096 0.056777805 0.08494788 -0.28307915 -0.44831994 0.33063382 0.32710904 -0.293062 0.6114187 -0.4749841 -0.0043851 -0.16294608 -0.020009695 -0.33418816 -0.13825244 0.459223 -0.13920505 0.4692725 -0.8699125 0.6363506
QP -0.35792348 -0.25658157 -0.4950611 -0.19608761 -0.11222693 0.05389142 0.5950005 0.2147462 0.03884694 0.3622972 -0.14816637 -0.030292368 0.9727722 -1.0635445 -0.41087773 0.0989412 -0.15619856 0.619621 -0.16652639 -0.36142397
IT 0.017588139 -0.18523045 -0.20677109 -0.25609168 -0.31640357 -0.1397358 0.95338154 0.5568618 -0.13939919 0.34464222 -0.81918514 -0.4384283 -0.40920672 0.29794037 0.2791589 0.14548975 -0.6038668 0.053191055 -0.49900988 -0.046315584
NN -0.41134727 -0.27366766 -0.048213124 -0.3682425 0.0035842312 -0.1079452 -0.107554056 -0.3227469 -0.66704077 0.07514231 -0.056202993 0.61823404 -0.4016561 -0.13605009 -0.7016262 -0.29237676 -0.779396 -0.23034549 -1.0563784 0.040941536
KF -0.7630927 -0.44472933 0.37232867 -0.73680484 0.0056823827 -0.21798691 0.19271219 -0.37316805 0.46920636 -0.12123961 -0.19066545 -0.3252639 0.04759086 -0.01602196 -0.118205175 0.73149526 -0.09703881 0.3396154 -0.43886054 0.58009475
YG -0.19881634 0.5227072 0.22609276 -0.5481927 0.13149358 0.2841796 0.267225 -0.12858403 -0.41527367 0.22983335 0.38891754 -0.47962707 -0.06972177 -0.31144345 0.16196118 0.09402772 -1.0517105 0.459571 0.082361095 0.56362444
TN -0.4071168 0.17106387 0.046979494 -0.30173877 0.2756418 -0.3464817 -0.20295584 -0.20301653 -0.3962773 -0.27166474 -0.4927633 0.26279023 -0.11876379 -0.2540476 0.049990475 0.45447168 -0.71510667 -0.5484337 -1.0723951 -0.15340391
PN -0.92327064 0.33281228 -0.17895159 -0.52555597 0.7695377 -0.3322529 0.09367227 -0.19866927 -0.24141635 0.21013671 -0.055371873 0.16180725 -0.029650025 0.06277015 -0.3222076 -0.19260971 -0.402471 0.08455402 -0.81450844 -0.2328528
ME 0.31055892 -0.6181897 0.07361644 0.21362685 0.56315166 -0.47552434 0.112408735 -0.43715894 -0.0027091152 -0.22828859 -0.03897201 -0.15585749 0.2472668 0.000749705 0.1532807 -0.42589337 -0.59176904 0.87142205 -0.63390464 -0.10861172
GY -0.6222323 -0.21104725 0.15793231 -0.009950555 -0.0064503523 0.3080489 0.16464017 0.01794032 -0.3433602 0.5739876 0.1494583 0.23204432 -0.26095113 -1.0688813 0.3891835 0.26990575 -0.8620367 0.15365414 0.29281443 0.5411778
DF -1.0749958 -0.5526291 0.33335572 -0.3736354 -0.5383268 -0.21976188 0.13192521 0.10208813 0.08906612 -0.31543723 0.46970627 -0.5135516 -0.17355792 0.15404607 0.33745015 0.41465375 -0.26684973 0.20204757 -0.5327611 0.1407799
PQ -0.98605543 0.039355483 -0.47726828 -0.05418831 0.58430946 0.0049898843 0.3200572 0.60743713 0.047566086 -0.060331635 -0.18110989 -0.28643718 0.44091395 -0.26851735 -0.15286861 0.23062919 -0.41255677 0.8023932 -0.24249925 -0.67358935
FV -0.100842565 -0.1490606 -0.16905485 0.020091942 0.19552909 -0.071094364 0.51388675 0.0009885023 -0.6726912 0.18498988 0.80552083 -0.29405695 0.23705198 -0.18981673 -0.32147092 0.9385176 -0.17128175 0.13823602 -0.7028985 0.38883498
VF -1.0395479 -0.5483846 0.1855572 -0.0043670265 -0.31984016 0.10071935 0.05515213 -0.08418168 0.20536911 0.41990668 0.038182102 -0.20223454 -0.25733656 -0.2786636 -0.020059945 0.64860636 0.3147261 0.2341247 -1.008433 0.08514571
RF -0.6467088 -0.32863772 0.7741797 -0.33169317 -0.45834425 0.12431679 0.20974293 -0.13520835 0.6699409 -0.014065771 0.5872221 -0.32068196 -0.16537946 0.06339565 -0.44344994 0.5633768 -0.36771548 0.38212237 -0.37000394 -0.09609327
FA 0.23250473 -0.030911075 -0.64202 -0.03903267 0.13130252 0.19018386 1.056413 -0.4384802 -0.40497681 -0.38317636 0.54070157 -0.26275182 -0.1154518 -0.38594764 0.10112677 0.43324026 -0.09754048 0.041410234 -0.6070441 0.21329355
QT 0.10784081 -0.1938098 -0.055851564 0.05663579 -0.10563169 0.2383487 0.69317967 0.4013324 -0.4043209 0.17986341 -0.9429676 -0.61457086 0.24944453 -0.59253883 -0.75433475 0.13509636 -0.26335907 0.31246874 -0.2187754 -0.11139136
FK 0.32244238 -0.3389226 -0.11409422 -0.5253299 0.18914081 -0.375056 0.993035 -0.6377995 -0.28345206 -0.08595742 0.15668462 -0.10471374 -0.090380944 -0.30967852 -0.08435368 0.64903706 -0.049192123 0.20424107 -0.5599708 0.34555164
NT -0.1730991 -0.062582396 0.18895169 0.12104311 -0.67202187 -0.25940177 0.7487479 0.39898002 -0.6331537 0.15383144 -0.4272937 -0.04242195 -0.29095036 -0.27886525 -0.7302031 -0.38928384 -0.57069093 -0.120503895 -0.7759093 -0.08621237
DQ -0.87061214 -0.7690377 -0.5325444 0.059631303 -0.02891004 -0.011059137 0.13163896 0.3804754 -0.08740838 -0.5496729 0.07006976 -0.51669717 -0.07905587 0.15085049 0.39130765 0.22419994 -0.82227445 0.28779632 0.078824244 -0.3373411
QI -0.14573951 -0.4182665 0.030922733 -0.26042446 -0.29818466 0.26739866 -0.19669689 -0.26871577 0.33588594 0.3937217 -0.9538329 -0.66444874 0.30368006 -0.5836838 -0.42226812 -0.17747279 -0.5807321 0.465351 -0.09395776 -0.32093474
PI -0.8179306 0.18691881 0.15483971 -0.24424727 0.06876473 -0.519387 0.06606779 -0.052692894 0.55402136 0.8032508 -0.4830246 -0.48823708 0.30783913 -0.092599794 -0.08264135 -0.37189448 -0.35607833 0.2392911 -0.4887916 -0.41257212
II -0.31918934 -0.23782922 -0.23593165 -0.4446181 -0.40098852 -0.112518646 0.09821174 -0.11591255 0.42694393 0.70928955 -0.67614585 -0.33554813 -0.17410186 0.27979013 0.4668572 -0.24210487 -0.831695 0.09350058 -0.5401602 -0.3460723
SY -0.8183643 -0.12188269 0.07127508 -0.4608643 0.17736872 -0.042124886 0.26858386 0.034867186 -0.07763393 0.16581357 0.060477767 -0.017572897 -0.36730945 -1.0931194 0.017943125 -0.2063155 -0.42466697 -0.36520296 0.24381438 0.24458115
IQ -0.13567859 -0.65331614 -0.8212285 -0.28844765 0.14143786 0.18041503 0.25525087 0.35735357 0.20990601 -0.046629786 -0.5070616 -0.09767992 -0.17298417 0.26173836 0.33326817 0.3632731 -1.0035275 0.54868007 -0.28243244 -0.41851053
YS -0.08710075 0.17075507 -0.05839622 -1.0819733 -0.14927226 0.10689834 0.4259154 0.34280542 -0.21013217 -0.033502307 0.50203466 -0.28965312 0.2570089 -0.21834078 -0.03509564 -0.19890901 -0.9515474 0.012267856 -0.023014171 0.24939622
NQ -0.41152224 -0.52964216 -0.37289667 0.061893262 -0.3849644 0.25514057 0.07612508 0.31174862 -0.457597 -0.30224925 -0.14750686 0.24266133 -0.1019064 -0.33931035 -0.61357975 -0.13816945 -0.95557535 0.48691082 -0.5290074 -0.52660924
NI -0.322124 -0.38905627 0.15457545 -0.22187261 -0.6766628 -0.25049812 -0.264873 -0.222446 0.07540967 0.4759174 -0.4523095 -0.16035277 -0.12245858 -0.20262288 -0.4882253 -0.7254315 -0.8455005 -0.1084208 -0.66498065 -0.19576353
TQ -0.25701544 -0.09918766 -0.13235405 0.095988944 0.183787 -0.05593083 -0.03276404 0.4013642 0.019818883 -0.60387146 -0.66734743 -0.13843541 0.29176253 -0.5669558 0.2842953 0.79693437 -0.8010235 0.007778818 -0.44588408 -0.65111905
YL 0.16504931 0.10629809 -0.13045043 -0.53060186 -0.2678559 -0.2337438 0.2885932 -0.1547679 -0.034941472 -0.39078647 0.40373546 -0.72754276 0.44045708 0.06834082 -0.33130708 0.033689257 -1.1557064 0.2395825 -0.075243 0.17469308
EM -0.37461078 -0.9541477 0.04132811 0.62371504 -9.208747e-06 -0.47487652 0.18750966 -0.64046735 0.11119418 -0.6255072 -0.26981866 -0.2254801 -0.029623808 -0.74164253 -0.08337749 -0.09952511 -0.43686622 0.12771295 -0.019793883 0.29887095
QD 0.13988657 -0.52729857 -0.3175185 -0.45849457 -0.03637232 0.18537241 -0.112661265 0.036604997 -0.08553234 0.2885093 -0.31615955 -1.1150887 0.3203167 -0.8007395 -0.20231907 -0.27153093 -0.055503145 0.5263534 -0.35797143 0.12069315
SH -0.5916222 -0.3520204 -0.21052407 -0.64358765 0.27885032 0.15021884 -0.43812826 -0.61196136 0.15761141 0.09644871 0.58460116 -0.24822697 0.42784482 -0.7655455 0.031524137 0.09404353 -0.20572405 -0.44943088 -0.24575047 -0.42071038
PF -1.132337 0.3319969 0.15716986 -0.5903418 -0.105981775 -0.27311948 0.33104625 0.10894868 0.36462924 0.21424142 0.2947798 -0.4253016 0.17476994 -0.24126336 -0.29959628 0.3058467 0.09961952 0.6089874 -0.90773994 -0.10212495
IN -0.27278742 -0.31926242 -0.5348113 -0.72050405 0.27119106 -0.121031985 0.16986819 -0.2127244 -0.11047354 0.21136136 -0.37477767 0.30705357 -0.509281 0.56064546 0.21897203 0.12529835 -0.8250532 -0.07803274 -0.9162567 -0.205
MK 0.4364357 -0.3245046 0.1190107 -0.12704705 0.4147052 -0.6148944 0.4168336 -1.0345767 -0.011161127 -0.013071861 -0.114742726 -0.033571668 0.25605306 -0.12670285 0.08765126 -0.2961531 -0.6354712 0.5265179 -0.43262267 0.085882515
FR 0.16881469 -0.3061283 0.064071886 -0.20905788 -0.01298261 -0.11542079 1.0310074 -0.4206588 -0.1153741 0.026061649 0.6743958 -0.14136618 -0.71654403 -0.53638345 -0.00064280437 0.62416565 0.0051183207 0.17651784 -0.52108556 -0.32698405
QN -0.25380772 -0.19249174 -0.3580026 -0.5223749 0.4852765 0.28667033 -0.072748244 -0.39823774 -0.51443183 -0.110295065 -0.7895962 0.15922141 0.14887665 -0.40850002 -0.894647 -0.01855841 -0.5657574 0.2727745 -0.60009843 -0.22101934
MS 0.05925643 -0.39709023 0.010425662 -0.5252234 0.27156743 -0.06426569 0.38946912 -0.56573075 -0.34892163 -0.20564027 0.23088722 0.0287262 0.45604217 -0.12561798 0.46683866 -0.5655296 -0.3637299 0.434084 -0.4631976 -0.4362839
LY -0.65559596 -0.13525127 -0.30680642 -0.3046936 0.4495264 -0.14695725 0.068901084 0.2503336 0.037625656 -0.03673809 -0.08958376 -0.51233214 -0.8224734 -0.77544427 -0.38252366 0.10725962 -0.6097338 -0.0791816 0.050733075 0.44958594
KY -0.4318447 -0.27052134 -0.073844716 -0.34291086 0.7202941 -0.26911774 0.33172074 -0.11486676 0.36005273 0.11676347 -0.34090126 -0.08997777 -0.5077251 -0.6399936 -0.046782196 0.43738326 -0.6234316 -0.056278713 0.29011655 0.75752795
AM -0.62117016 -0.071764044 -0.19747905 0.77997357 0.006043735 -0.19652504 0.3155454 -0.79362524 0.35634032 -0.6006093 -0.2730544 -0.23567963 -0.0025197843 -0.73779655 0.030823242 -0.25607327 -0.33281347 0.23816006 -0.4121362 0.31205258
EY -0.28963187 -0.8393615 -0.1312311 0.09953145 0.23813039 -0.12648244 0.06772549 0.28420708 0.3410173 0.04212574 -0.09857707 0.09002793 -0.49449456 -0.91209155 -0.063794084 0.19790192 -0.6873992 -0.029833863 0.10433242 0.7243323
AY -0.58670425 0.09405906 -0.3810117 0.012045074 0.23788787 0.20794994 0.18676595 0.048992194 0.57495946 -0.03197515 -0.07134888 0.06719517 -0.61892444 -0.93573034 0.05581844 -0.05722254 -0.6412729 0.027378498 -0.2145709 0.76519096
MG -0.08569527 0.2042111 0.26609942 0.21053992 0.42337754 0.07856554 0.13066413 -0.83759063 -0.54719836 0.1431672 0.043675967 -0.38079497 -0.023061324 -0.19335665 0.5145974 -0.21845338 -0.66884303 0.8648891 -0.46294442 -0.07875162
ML 0.18006153 -0.31788746 -0.17678599 0.15863436 0.042893566 -0.28570712 0.20466435 -0.90810597 -0.20960227 -0.29510176 0.23791124 -0.4631735 0.42788744 0.20103696 0.03437717 -0.2476547 -0.77526194 0.67542285 -0.4947118 -0.5587472
YE 0.28951973 -0.20210536 0.040471226 -0.38507342 0.37443805 -0.3629949 0.120995454 0.27291802 0.17192285 -0.1520547 0.34203777 -0.3634972 0.19488247 -0.11596322 -0.11892399 0.06439427 -1.0621994 0.65686697 -0.1884597 0.69230336
KM -0.4847131 -0.57697463 0.17108037 0.3597656 0.49239433 -0.5449188 0.32800034 -0.9987486 0.12294272 -0.36281276 -0.52265966 -0.39241505 0.071207896 -0.45855963 0.03386002 0.1316381 -0.27778164 0.11678058 0.12578645 0.2515626
FT -0.15408899 -0.18135624 -0.073813595 -0.008826278 -0.13108474 -0.19854857 1.3111558 0.19700061 -0.84586763 -0.11864476 0.0055631856 -0.4305594 -0.24633756 -0.20785879 -0.13765687 0.5629683 0.040407885 -0.009953002 -0.52606916 0.16346683
HL 0.21382198 -0.3566872 -0.32285106 -0.07800979 0.23737732 -0.28161028 0.13374671 -0.32650316 -0.5115128 0.30516547 0.23317814 -0.90360457 0.2796128 0.014378214 -0.2972274 0.2128641 -0.658258 -0.3665755 -0.09981592 -0.9316444
SM -0.78691345 -0.3163208 0.12110483 0.28020057 0.033973683 -0.13114102 0.29327905 -0.8377691 -0.24678607 -0.49237224 -0.17527047 -0.3255392 0.16361281 -0.86211437 -0.042055912 -0.41333413 -0.10929257 -0.1668021 0.0016545134 -0.27081358
HS 0.14513922 -0.47886008 -0.19424719 -0.60085833 0.38341808 -0.0009837409 0.16554074 0.267198 -0.45329943 0.56872004 0.31575155 -0.31699568 0.025257764 -0.40759906 -0.12745604 0.03927726 -0.61142266 -0.55832726 0.055066064 -0.87753284
FP -0.37670055 -0.095028006 -0.330002 -0.27712935 -0.11900804 -0.35438868 1.190055 -0.07704081 -0.34095863 0.08529853 0.6026611 0.06690806 0.27316862 -0.53555965 0.1784648 0.59338176 -0.05134549 0.16230574 -0.39377245 -0.31388682
LH -0.3944087 -0.25498644 -0.542684 -0.4712592 0.40030304 0.06878597 -0.5584658 -0.31997308 0.47063777 -0.14108908 0.49065375 -0.7123405 -0.076871954 -0.46983904 -0.25161192 0.42546785 -0.4397655 -0.28566748 -0.44021663 -0.50531125
HG -0.09440445 -0.085356414 0.046629783 -0.16098894 0.6444127 0.12328815 -0.061410442 -0.21127608 -0.777019 0.89863354 0.28808218 -0.757289 -0.29305133 -0.34978935 0.13436219 0.32342568 -0.6685694 -0.09443305 0.10334995 -0.55921704
TF -0.5738358 0.13039778 0.46722418 -0.5504874 -0.54554313 -0.16594653 -0.012810742 0.16553994 0.08404052 -0.35128143 -0.20366968 -0.25827152 0.087218136 -0.64433074 0.04905706 0.9024673 -0.28029037 0.09970986 -1.0521408 0.02668625
YA 0.30437636 0.42128426 -0.41875258 -0.23502518 0.08720208 -0.041569106 0.5441293 -0.09834157 0.06369485 -0.16209741 0.54603773 -0.3294982 0.14790098 -0.40866643 -0.03638152 -0.1372485 -1.227502 0.056343544 0.056378447 0.52720666
GM -0.63452935 -0.11892649 0.20074098 0.7997349 -0.25050485 -0.095133014 0.25767305 -1.0725487 -0.48786557 0.06637431 -0.03588062 -0.19096531 0.27183738 -0.7553692 0.3093817 0.1026962 -0.63257456 0.32988176 0.009861858 -0.027336702
IF -0.47404188 -0.29784968 -0.06833881 -0.82113546 -0.5933618 0.3031282 0.36337966 0.03427672 0.43105024 0.22402507 -0.2630081 -0.17270645 -0.34500298 0.15567283 0.3215882 0.55910355 -0.35789844 0.58638906 -0.8518338 0.025057282
YD 0.094756834 -0.050194968 0.09347175 -0.7118288 -0.08620496 -0.25236323 0.07492749 0.18486206 -0.021701822 0.1358321 0.5875608 -0.906824 0.07495336 -0.45481473 0.07260733 -0.31067395 -0.90106386 0.3561512 0.04676843 0.6289124
YK 0.3702867 0.0025652284 0.08760223 -0.7422274 0.13734628 -0.49520236 0.39825198 -0.25928557 0.079775244 0.099923804 0.11126308 -0.23105177 0.30697918 -0.2512925 -0.33982095 0.085059136 -1.0267314 0.07756465 -0.009148237 0.71939903
DY -0.7037361 -0.51144844 -0.101629585 -0.16299823 0.23409085 -0.47368482 0.17542052 0.29187143 0.03193052 -0.16033484 0.2388276 -0.22199118 -0.78144836 -0.5194953 0.35093105 0.052052245 -0.83799946 -0.15385102 0.1438947 0.5673144
MD 0.15965587 -0.36584982 -0.09492518 -0.019467747 0.118930414 -0.48820746 0.051513933 -0.6438341 -0.24784172 -0.037356947 0.281725 -0.7771285 0.14227483 -0.3991989 0.5174022 -0.72703326 -0.37515455 0.5747475 -0.56473 0.16425996
LM -0.60099536 -0.2182689 -0.19931534 0.37096786 0.2353626 -0.46530578 0.216418 -0.7254952 -0.09285085 -0.5965016 -0.29130584 -0.7309862 -0.4104198 -0.6216243 -0.46470776 -0.10071327 -0.38011137 0.08903384 -0.1326593 -0.018517341
YR 0.2935588 0.05859498 0.22035028 -0.55171806 0.0014150655 -0.17439643 0.48828855 -0.091954105 0.41826713 0.08257154 0.6049745 -0.25235724 -0.35513985 -0.54520833 -0.1451905 0.06785786 -1.1064022 0.26240903 0.2581506 0.1519767
EH -0.21573251 -0.94868267 -0.41502047 -0.26199004 0.19966935 -0.0065953187 -0.6121089 -0.38056684 0.56829286 -0.0010930696 0.5154679 -0.016613156 0.269638 -0.65430224 0.043099806 0.39060742 -0.5368954 -0.22709289 -0.34640348 0.02016829
RY -0.4382804 -0.16948391 0.34206888 -0.013685764 0.3540357 -0.039550208 0.21301691 0.16830024 0.47223523 0.15647347 0.57863736 -0.06496759 -0.7126818 -0.6622375 -0.26362398 0.15770903 -0.8891088 -0.06917575 0.35842815 0.26368377
MV 0.051203787 -0.08365775 -0.10827545 0.5885638 0.32369325 -0.34844938 -0.21004097 -0.46628726 -0.3682407 0.19993497 0.4062778 -0.16029468 0.67873335 -0.06902821 0.016698794 -0.22866182 -0.89967763 0.59631354 -0.7317364 0.097171865
FI -0.44456053 -0.30095205 0.09648828 -0.51989824 -0.41484925 -0.5678915 0.46111616 -0.43941242 -0.24723335 0.32441083 -0.17867607 -0.47876105 -0.18416283 0.0021498417 0.2514477 0.17983536 -0.28745884 0.13605577 -0.5292988 -0.38128754
FQ -0.33858573 -0.58154345 -0.46692953 -0.2034034 0.24352576 0.2617464 0.7988651 0.021695387 -0.59883976 -0.64029324 0.16953947 -0.021381913 -0.09108495 -0.2126413 -0.05873526 1.0059059 -0.29674074 0.5601701 -0.2991015 -0.42916533
YV -0.102781 0.23426126 0.028133918 -0.23628668 0.13488998 -0.24077788 0.049174607 0.30975515 -0.1471467 0.25605115 0.585826 -0.28309304 0.5663994 -0.11493849 -0.41974947 0.25429064 -1.1571598 0.13097107 -0.2197054 0.8601322
GH -0.35223693 -0.3954964 -0.04958539 -0.2721975 -0.14648178 0.4279134 -0.46853808 -0.71828765 -0.048452012 0.535003 0.63117826 0.003369853 0.36523825 -0.56926763 0.34076983 0.6775003 -0.6919351 -0.09193734 -0.28311068 -0.15764055
FN -0.5216572 -0.04257775 -0.31096885 -0.6483354 0.358806 -0.28565475 0.64024055 -0.5273597 -0.808386 -0.30166796 0.33711424 0.28148073 -0.4156688 -0.015037817 -0.12683153 0.48379472 -0.33104402 -0.080833785 -0.84839666 0.02477338
VY -0.6452399 -0.4515847 -0.2908809 0.3479243 0.42162967 0.054613985 0.08319608 0.19638026 0.03757637 0.64890015 -0.15569413 0.039515063 -0.77403176 -1.0001285 0.1496443 0.30401072 -0.3425687 -0.014696331 -0.21253276 0.39427507
KH -0.2755375 -0.53199893 -0.30934817 -0.7391139 0.7183436 -0.0071989563 -0.45103145 -0.7340855 0.64507717 0.20334193 0.15312895 -0.22853746 0.3863145 -0.21891803 0.14343673 0.58414465 -0.48672664 -0.23649555 -0.11857492 -0.061911922
NF -0.65898395 -0.27677307 0.28360948 -0.41483974 -0.99157983 0.008652224 0.11455996 0.0067730863 -0.05756802 -0.09384817 0.26197377 0.052535396 -0.3501253 -0.3728087 -0.60358495 0.059088342 -0.4286257 0.4093136 -1.0905693 0.096276
VM -0.7372103 -0.5585685 -0.13005215 0.9920142 0.22518727 -0.17531118 0.21158047 -0.87421215 -0.21756364 0.13847622 -0.36012807 -0.20071459 -0.24613689 -0.69678503 -0.0074456297 0.048526984 0.029862288 0.042375773 -0.44769135 -0.25028607
RM -0.47725368 -0.22961748 0.58601725 0.7800997 0.19640861 -0.4327947 0.2255744 -0.81968004 0.23621994 -0.32753307 0.22022863 -0.3061769 -0.21350116 -0.49397713 -0.34940937 -0.040888783 -0.76134276 0.27321088 0.22441246 -0.25082162
MR 0.28010526 -0.2603984 0.074134074 0.2815248 0.2340419 -0.28881887 0.40445524 -0.86293787 0.29791033 -0.033534847 0.31286204 -0.06438393 -0.27408132 -0.39319524 0.25723296 -0.33028048 -0.65155137 0.8003763 -0.39488998 -0.6502131
PY -0.8724806 0.3518879 -0.07208621 -0.34516922 0.66767746 -0.42358774 0.3557952 0.44231552 0.20191835 0.46566114 0.2216138 -0.09620376 -0.4014058 -1.05688 -0.03581312 -0.1161713 -0.45364052 0.45426023 -0.056921028 0.16781025
HE 0.3748672 -0.80126053 -0.0624332 -0.010708337 0.8076548 -0.62392396 -0.14292821 0.2531695 -0.34596086 0.48851004 0.17090105 -0.5021053 -0.030837474 -0.27699393 -0.17702763 -0.06878602 -0.72403586 0.0385803 -0.12034099 -0.45651326
HP -0.30519956 -0.34320784 -0.50840276 -0.08021109 0.23445094 -0.78275687 0.4671309 0.13380988 -0.2921446 0.6798192 0.4284656 -0.26920012 0.49549973 -0.5811162 -0.10264215 0.2504895 -0.6737979 -0.1913984 0.17018199 -0.79055834
HR 0.26437148 -0.63177717 0.1422978 -0.2501137 0.41580838 -0.32508692 0.26905394 -0.2200963 -0.0797775 0.6152071 0.47453773 -0.4197336 -0.5309557 -0.6599527 -0.12619543 0.19450217 -0.5314891 -0.28129497 0.19507894 -1.0697972
DM -0.8765182 -0.5989038 -0.117753245 0.63130975 0.010816939 -0.6198411 0.16731909 -0.5368936 -0.33579186 -0.49986097 0.19957808 -0.51435345 -0.14777781 -0.38450503 0.41922396 -0.30793732 -0.5472453 0.010764471 -0.014328962 0.15290421
HV 0.08783315 -0.26906058 -0.13338357 0.191257 0.5838429 -0.2700863 -0.22354871 0.255958 -0.5458801 0.8365385 0.48297969 -0.56866956 0.4003681 -0.27056488 -0.46232074 0.40629527 -0.76034576 -0.4870065 -0.17870449 -0.33468398
FF -0.6175571 -0.27712616 0.13034561 -0.6864078 -0.41754913 -0.09326341 0.6887689 -0.24543625 -0.2660878 -0.23876454 0.50239027 -0.24234551 -0.25148582 -0.32356307 -0.11195629 0.88671714 0.12504482 0.35650307 -0.8614973 0.18853761
HA 0.47371614 -0.046396807 -0.80836064 0.17408298 0.62587035 -0.023282547 0.30920517 -0.16590098 -0.30317295 0.41174838 0.1274276 -0.47858605 0.09338201 -0.48602337 -0.1041838 -0.06859615 -0.81163394 -0.76846427 0.014431263 -0.5665767
AH -0.4077215 -0.04736485 -0.6425894 -0.33550078 0.13748632 0.32531455 -0.49916288 -0.5850562 0.88222706 -0.12992738 0.3179677 -0.090142705 0.16490813 -0.578102 0.16253114 0.13990258 -0.54941064 -0.16224976 -0.7078363 -0.12693642
VH -0.5154577 -0.55325466 -0.5234585 0.15211241 0.37331948 0.089465566 -0.5273261 -0.53497416 0.34964845 0.69864696 0.47647256 -0.15124922 0.015048574 -0.6480976 0.24850771 0.5182797 -0.18523572 -0.12002273 -0.66323364 -0.41441387
HK 0.6124283 -0.5830917 -0.08413958 -0.3622807 0.6745538 -0.69399214 0.266498 -0.46555632 -0.25987545 0.5504413 0.003651755 -0.41878906 0.14026754 -0.3216082 -0.23908158 0.18777646 -0.62966734 -0.535232 0.062371798 -0.39344192
RH -0.30493662 -0.20289275 0.15383531 -0.28406247 0.2883059 0.05708508 -0.29222316 -0.5291324 0.8327705 0.13302243 0.9960815 -0.15772358 0.117731914 -0.38572624 -0.21336533 0.4608743 -0.7266689 -0.15530978 -0.07204891 -0.6317843
QF -0.5242878 -0.21650895 0.05707357 -0.63130623 -0.4869644 0.5301169 0.07005274 -0.16208835 0.092360735 -0.028708925 -0.19199663 -0.37106156 0.24153806 -0.78559834 -0.69120646 0.43798992 -0.12835276 0.94683015 -0.5781491 0.0061926395
MT 0.048155352 0.10209564 0.106024206 0.50575286 0.014283343 -0.5356808 0.86345464 -0.21866873 -0.75205904 -0.022126079 -0.5265765 -0.48571107 0.10607475 -0.052496657 0.20961961 -0.38098758 -0.6956997 0.5182521 -0.36070436 -0.19112508
DH -0.63325655 -0.64699525 -0.34511507 -0.40447527 0.21044825 -0.28886327 -0.4760633 -0.41627154 0.36284778 0.09202884 0.91001433 -0.32734045 0.0079052 -0.09925941 0.51159436 0.18076622 -0.68841255 -0.307724 -0.23305559 -0.18366805
YN -0.3632438 0.28994158 -0.063530125 -0.82691914 0.38728678 -0.38726214 -0.06033409 -0.24280801 -0.49219576 -0.27987722 0.07804326 0.109030396 -0.10615017 0.082399614 -0.3596654 -0.07473392 -1.5131464 0.12574616 -0.27366185 0.5092328
MP -0.46859297 -0.0012162549 -0.2555423 0.13428465 0.08018227 -0.6500728 0.60986286 -0.47832927 -0.22756873 0.24917655 0.3267931 0.2571574 0.86327684 -0.51315254 0.61672395 -0.3604871 -0.6846734 0.71398 -0.2693728 -0.34407106
YP -0.44124705 0.28995347 -0.20606257 -0.6041651 -0.18881424 -0.53044724 0.6710394 0.32334682 -0.04839342 0.20624354 0.5025817 0.04425078 0.7364011 -0.5953065 -0.11007382 0.007671839 -1.0851707 0.33414903 0.17646293 0.14700289
TY -0.272619 0.13080715 0.13674901 -0.23683155 0.18550327 -0.3668592 -0.07519653 0.42200813 -0.03986155 -0.017737728 -0.39741367 -0.058908314 -0.48978543 -1.27933 0.24187958 0.5762363 -0.8837486 -0.23866883 -0.26801318 0.24577346
MQ -0.2866725 -0.39688334 -0.40560842 0.31831807 0.3221395 0.010061236 0.18943338 -0.3236274 -0.27420965 -0.56030154 -0.17376259 -0.08120364 0.31184205 -0.20018168 0.23721914 0.02651133 -0.9963932 1.1079481 -0.19009832 -0.8222186
TM -0.38978267 -0.017284371 0.32721698 0.34768072 0.07090538 -0.681068 0.0888685 -0.55586654 -0.21137385 -0.7131259 -0.5767138 -0.34791985 0.17059541 -1.1477699 0.23118234 0.33406904 -0.44938788 0.0523822 -0.3812148 -0.20858909
MN -0.35467985 -0.1675285 -0.11137854 -0.11297715 0.602715 -0.36893222 0.037796605 -0.977721 -0.54973197 -0.32003906 -0.2009229 0.34953222 0.07895562 0.20455128 0.085283905 -0.41867232 -0.8513535 0.3872284 -0.73933554 -0.3609907
PM -1.0121862 0.36286345 0.048637155 0.43673974 0.45182472 -0.6584524 0.44568652 -0.62810624 -0.14656316 0.07791614 -0.033477325 -0.36528102 0.26636487 -0.8755354 -0.0589573 -0.22703484 -0.1478122 0.7615252 -0.29261735 -0.34464478
HD 0.2038227 -0.8188855 -0.037629515 -0.4613057 0.42903906 -0.4421303 -0.10565036 0.048793703 -0.53852457 0.6822021 0.3752096 -0.9749001 -0.0046050954 -0.5600436 0.02497091 -0.22046734 -0.37596574 -0.18151382 0.08468943 -0.33575642
YT -0.08951249 0.38751838 0.15337689 -0.24304631 -0.16650663 -0.3420342 0.84377885 0.513146 -0.3960064 -0.05371624 -0.23646794 -0.4524016 0.088286385 -0.11590504 -0.39077124 -0.027988268 -1.1934464 0.15949795 0.12011095 0.5144518
HQ -0.22924201 -0.5575238 -0.65072995 -0.16891038 0.6526935 0.050588828 0.089531556 0.12740922 -0.6161776 0.085614644 -0.019906666 -0.31965178 0.18205503 -0.44031987 -0.27707446 0.4530479 -1.0283599 0.13254085 0.4629516 -1.0460238
PH -0.7744336 0.3017611 -0.39669126 -0.55256635 0.65612054 -0.21039581 -0.388034 -0.2781867 0.4211695 0.4251816 0.60305125 -0.26824954 0.45453158 -0.62216353 0.030532593 0.16162139 -0.37557203 0.35422856 -0.6024721 -0.55896896
YI -0.3859888 0.1511948 0.2484818 -0.61369914 -0.34415412 -0.34721026 -0.12790784 0.037579738 0.33142895 0.39009804 -0.27479964 -0.625625 0.23745164 -0.08434229 -0.09374704 -0.40908813 -1.4867026 0.13186449 0.2905289 0.24992089
IY -0.25378385 -0.22947311 -0.5150809 -0.5601316 0.31237286 -0.086180225 0.31320876 0.54314405 0.16797128 0.48358342 -0.292961 0.05772052 -0.8784807 -0.59518284 0.56176823 0.07795206 -0.95858264 0.30268812 -0.120243296 0.25233752
CL 0.08345371 -0.030932084 -0.46134627 -0.12582357 -0.61123765 -0.058854893 0.4272361 -0.5174632 0.12318935 0.405709 0.2863452 -1.0219141 0.14590196 0.09655686 -0.4442615 0.54912055 -0.5245245 -0.3875087 -0.4339134 0.034028735
NM -0.40962443 -0.23752037 0.021031251 0.48408306 -0.4047321 -0.547879 0.13639805 -0.62679386 -0.5230873 -0.2223132 -0.14851509 -0.0046997936 -0.3441453 -0.9650961 -0.43490687 -0.58359027 -0.7473617 0.25567994 -0.53871197 0.028891476
IH -0.008909427 -0.4315292 -0.73397356 -0.80677414 0.113851495 0.06210715 -0.35982475 -0.21943536 0.63271827 0.47452697 0.17681181 -0.11835561 -0.12832062 -0.20364909 0.54450357 0.34791756 -0.9209708 0.21450846 -0.54433846 -0.5716429
LC -0.416221 -0.05881272 -0.49070406 -0.11378886 -0.29403678 0.0032876441 0.25724652 -0.3351893 0.18141307 0.046574917 -0.123168506 -0.8636527 -0.63487643 -0.15332869 -0.4536915 0.588531 -0.5753332 -0.6778038 -0.2573795 0.20383312
NY -0.428203 -0.13807066 -0.1476742 -0.17283155 -0.069357485 -0.2684941 0.04158254 0.21611767 -0.24351507 0.39168227 0.10338454 0.30383945 -0.71246487 -1.1406245 -0.38102016 -0.48813203 -0.9210784 0.072278 -0.33841774 0.37621102
MI -0.212246 -0.2667597 0.19288778 0.15099639 -0.039395735 -0.43798435 -0.1680822 -0.75865364 0.08249509 0.23807785 -0.5027226 -0.35571387 0.25829396 -0.11289647 0.45753598 -0.7569451 -1.0284972 0.54926026 -0.21869566 -0.24705824
YQ -0.27820256 -0.06712027 -0.2658427 -0.49491546 0.065151006 0.13371767 0.17798226 0.4108585 -0.10577844 -0.5771009 0.019592984 -0.23216954 0.27965382 -0.23837526 -0.1611072 0.40072376 -1.4935452 0.6925777 0.30503163 -0.009616973
HI -0.27682397 -0.3669036 -0.031872556 -0.07311089 0.17739157 -0.5237069 -0.28673747 -0.10335017 -0.029060107 0.9820991 -0.3360314 -0.6314161 0.114743195 -0.2365759 -0.002877502 -0.26916713 -1.0066235 -0.40483886 0.16702965 -0.809865
QY -0.24763286 -0.39120048 -0.42021757 -0.4086886 0.33955148 0.20232067 0.025703983 0.40192252 -0.113546744 0.25397262 -0.21911412 -0.32810238 -0.18542129 -1.4806311 -0.47514302 0.06332028 -0.5347278 0.52641684 0.17793843 0.31585422
QM -0.28971723 -0.42777264 -0.1922821 0.2524296 0.12314016 0.11258356 0.21175985 -0.6798325 -0.2199919 -0.23163903 -0.6432259 -0.45281306 0.28692836 -1.2906357 -0.50472903 -0.20411484 -0.29431295 0.6319118 0.121054225 -0.23259725
TH -0.097449124 0.017700102 -0.00034147216 -0.47920683 0.15392087 -0.32427916 -0.6232822 -0.22067063 0.32851267 -0.010177122 0.2633502 -0.32609668 0.23729257 -0.9121977 0.5499019 0.820338 -0.70810443 -0.31930587 -0.6468897 -0.5644172
NH -0.29550955 -0.3198939 -0.4107069 -0.49617326 -0.24992587 0.014346217 -0.7226969 -0.33269733 -0.05375329 0.38602504 0.7512482 0.29859376 0.0062977388 -0.86738384 -0.26271236 -0.20725842 -0.8670411 -0.02715008 -0.9077685 -0.43501225
CS -0.1020958 0.036975753 -0.4371579 -0.7162222 -0.66264266 0.39170003 0.49648255 -0.11239845 0.01388434 0.72246945 0.22283195 -0.6584467 -0.009114136 -0.25392658 -0.18771325 0.3013709 -0.370951 -0.8305498 -0.28632668 0.03647866
FY -0.31169516 -0.26956895 -0.3068401 -0.46590182 0.47144422 -0.2557995 0.7197798 0.12709011 -0.5048022 -0.12269697 0.4881839 0.048359055 -0.64649624 -1.0786637 0.03494224 0.6953108 -0.32725123 0.21139139 -0.12521556 0.52377886
QH -0.060675416 -0.5285221 -0.6542729 -0.5746425 0.40710896 0.6003145 -0.6308477 -0.28042334 0.30186588 0.26980922 0.13035248 -0.28020382 0.5822751 -1.1548951 -0.25263688 0.31772837 -0.5178633 0.5608956 -0.17208707 -0.43916434
SC -0.71519786 -0.072840825 -0.24808207 -0.39775175 -0.5157017 0.20664856 0.3628626 -0.54967475 -0.2938781 0.28182927 -0.124634326 -0.4856862 -0.06799275 -0.62049603 -0.2565555 0.45342186 -0.309915 -1.1946363 0.016821068 0.09052034
HT 0.036456734 -0.1603808 -0.050821126 0.2450344 0.2710486 -0.5114682 0.48505613 0.3508939 -0.94187284 0.6974862 -0.25944638 -0.78694355 -0.12300321 -0.32232127 -0.24794063 0.1499445 -0.72484976 -0.46097425 0.084790066 -0.6261842
IM -0.34374326 -0.40844002 -0.42306018 0.08139765 -0.039649278 -0.47302112 0.54425263 -0.75728166 0.011049575 -0.06845849 -0.62128395 -0.14690502 -0.5626469 -0.33398873 0.6808607 -0.16856174 -0.62083125 0.46633148 -0.28091362 -0.2362831
CG -0.085589 0.54246277 -0.1584168 -0.043266963 -0.19146562 0.32099518 0.34055355 -0.54333776 -0.15428482 0.95313936 -0.037012562 -0.9777655 -0.41713554 -0.2645178 -0.10142852 0.73213166 -0.54633355 -0.28323284 -0.36356452 0.29870963
YF -0.6332666 0.2092885 0.3253631 -0.90015197 -0.50999475 -0.18885285 0.25222355 0.01758747 0.1589635 -0.3209231 0.43662998 -0.27545744 0.23821485 -0.3457678 -0.21480228 0.2675202 -0.8913329 0.6847529 -0.27433342 0.710353
CK 0.23690715 0.057116132 -0.20954578 -0.40828428 -0.28769112 -0.37273192 0.619738 -0.615859 0.35137096 0.77076143 -0.09844069 -0.5669365 -0.055793483 -0.25756422 -0.38454694 0.5402058 -0.41436228 -0.4099145 -0.4413745 0.7143965
HH -0.06802865 -0.64364284 -0.4783195 -0.5148155 0.6845329 -0.3477128 -0.546545 -0.31501248 -0.2530534 0.47297716 0.64930725 -0.42662588 0.18327583 -0.8655572 -0.021184916 0.46033263 -0.8751964 -0.21303695 0.13248272 -0.9399378
WK 0.062309813 -0.7019123 -0.20468546 -0.4870651 0.29225203 -0.1489014 0.8924684 -0.67174333 -0.080143675 0.83751184 -0.07222278 0.07177056 -0.05937065 0.1834316 -0.58504504 -0.3082127 -0.36002234 0.12984899 0.02295612 0.63879687
YY -0.37928343 0.11312467 -0.08436931 -0.6178627 0.19148071 -0.22920245 0.22788896 0.41515777 -0.07993532 0.058136534 0.26229995 -0.06607498 -0.2967259 -0.946622 -0.13951881 -0.060195208 -1.3500141 0.17722097 0.40358812 0.74167806
SW -1.1081014 -0.59404033 0.14263691 -0.42994457 -0.065947436 0.36059633 0.5702901 -0.51766586 -0.27537516 0.4752631 0.1600527 -0.19287905 0.08116128 -0.23638298 -0.6525688 -0.41013378 0.0076606446 -0.2869548 0.34924063 0.22579809
HN -0.30476552 -0.19008346 -0.37690586 -0.3862618 0.85026634 -0.40748987 -0.16795658 -0.29779175 -0.84751254 0.40995675 -0.032284852 -0.008693204 -0.16509701 -0.13016042 -0.36733037 0.15551288 -0.9290054 -0.4675634 -0.27272907 -0.6234704
FH -0.26558623 -0.32504815 -0.46423185 -0.85036105 0.35011873 -0.10823053 0.10865921 -0.60012996 -0.2541302 0.037964806 0.9510136 -0.19443704 0.07700289 -0.73452306 0.2549128 0.9269121 -0.13383226 0.107181065 -0.5251196 -0.37842277
AC -0.5014874 0.18050608 -0.72089285 0.1497801 -0.43948907 0.41030437 0.2896671 -0.6500656 0.49174127 0.06668741 -0.16315329 -0.4129087 -0.28777838 -0.36538574 -0.18485622 0.3661741 -0.6073848 -0.6899605 -0.39057034 0.55115885
GC -0.48191774 -0.10117975 -0.27863073 0.08891275 -0.7765259 0.37692958 0.3436457 -0.62800044 -0.3501785 0.5582564 -0.19195938 -0.3961949 0.040567007 -0.26619586 0.09296807 0.8271943 -0.793565 -0.44640616 -0.071335524 0.33386207
KC -0.51088625 -0.31671134 -0.28658584 -0.17257407 0.04504119 -0.17597145 0.424889 -0.730266 0.27105212 0.37855178 -0.3544652 -0.57883203 -0.16588554 -0.06481016 -0.2639582 1.0740544 -0.39659473 -0.48745185 0.02477198 0.5326845
VC -0.6160545 -0.24870087 -0.61275625 0.4569652 -0.32047355 0.17981265 0.10743264 -0.23895401 0.0804843 0.7606167 -0.13263436 -0.4111546 -0.5229983 -0.43297574 -0.08836008 0.8246633 -0.3789987 -0.6960532 -0.55856 0.09068361
GW -0.7688489 -0.55736953 0.16578181 -0.08322236 -0.17439926 0.48940018 0.5393313 -0.5978888 -0.4057738 0.88276464 0.21100768 -0.07307374 0.19492331 -0.008902164 -0.3454384 -0.043660704 -0.49700552 0.14638115 0.3861317 0.599435
WL -0.2861565 -0.64476395 -0.5152686 -0.17898314 -0.06926902 0.08638919 0.8934994 -0.5806504 -0.16261867 0.6301717 0.35751763 -0.49392802 0.22343533 0.49428684 -0.7747592 -0.24839759 -0.34096098 0.3369932 0.10481916 0.09793807
HF -0.47741866 -0.50085217 0.36063907 -0.68097746 -0.044518583 -0.34462443 -0.16527517 -0.042399943 -0.33961815 0.5775406 0.3037421 -0.44581115 -0.07757051 -0.4637485 -0.32815853 0.78322494 -0.45579198 0.02944679 -0.17951302 -0.48866716
CV -0.018253239 0.1466789 -0.37428394 0.18058608 -0.32147303 0.12791955 0.1567289 -0.055170342 0.04120385 0.7795142 0.43865854 -0.69560707 0.1107468 -0.27655315 -0.59741426 0.7886173 -0.6659949 -0.4407817 -0.472204 0.6357598
WE -0.16090122 -0.9247954 -0.17100655 -0.14641826 0.49157506 -0.10550746 0.8149351 -0.016820373 -0.07231795 0.41402188 0.28505573 -0.20627953 -0.18041521 0.29079026 -0.6526639 -0.38915214 -0.23374873 0.64204115 -0.047191855 0.6186282
WG -0.46446946 -0.28161106 -0.035089396 -0.09339085 0.41088352 0.728598 0.78333974 -0.48553294 -0.5579269 0.9124803 0.18082665 -0.29496568 -0.33295378 0.18774131 -0.33133376 -0.3460562 -0.21601622 0.38115668 0.053867713 0.41229823
RC -0.42799366 -0.0023059798 -0.022090463 0.054338705 -0.4258762 0.21774417 0.49393424 -0.45263594 0.5325503 0.36338502 0.37755802 -0.50708514 -0.42989394 -0.096865885 -0.6424405 0.7802637 -0.84302723 -0.65953064 0.2594478 0.019721562
MF -0.5732681 -0.099806994 0.44610003 -0.3281842 -0.2960368 -0.34557906 0.13431129 -0.7404311 -0.03854147 -0.3141107 0.2214247 0.017975077 0.20378724 -0.30230388 0.27299953 0.00079160504 -0.56372535 1.272638 -0.75268275 0.042620745
FM -0.42220363 -0.43951148 -0.09359522 0.21527486 0.078396454 -0.49039337 0.7971091 -0.8734801 -0.64796776 -0.58111596 0.34587488 -0.34724662 -0.25638407 -0.8081413 -0.057699557 0.43237823 -0.10550496 0.45397633 -0.20185359 0.08592649
KW -0.672937 -0.7543006 0.15073463 -0.4720121 0.48422784 0.08487058 0.70238304 -0.57157993 0.31951517 0.5837505 -0.16420417 -0.20275444 -0.09822188 0.24781673 -0.66287166 0.11642768 -0.12354361 0.066816114 0.38670763 0.56164867
WS -0.41732877 -0.6623522 -0.31705108 -0.7273744 0.17649978 0.5439324 0.9308685 -0.19915183 -0.23583557 0.78534454 0.27417982 -0.089414544 0.07039841 0.28096282 -0.40378442 -0.403968 -0.02511876 -0.014604751 0.08566339 0.117730245
CT -0.02474649 0.3137472 -0.2365539 0.21288031 -0.6358357 -0.16698965 1.0367318 0.18259431 -0.09481628 0.56159604 -0.5026569 -0.94808286 -0.25987095 -0.24582005 -0.42969412 0.48881721 -0.593154 -0.5043126 -0.16918726 0.32197848
CE 0.3405652 -0.20530286 -0.15748507 0.21065065 -0.31869647 -0.35444832 0.33600065 -0.0656044 0.4714275 0.6410159 0.04807749 -0.7730063 -0.39818618 -0.12862574 -0.27192912 0.58355325 -0.5818773 0.11813213 -0.59183675 0.48640448
EC -0.28252017 -0.7109391 -0.52464837 0.12266165 -0.5869375 -0.019199949 0.22704338 -0.20426247 0.32136092 0.081544474 -0.11203521 -0.33498874 -0.27686286 -0.40210932 -0.31148714 0.6770354 -0.78925514 -0.49538228 -0.0048479727 0.47160587
IC -0.1610372 -0.26430982 -0.84920466 -0.46559754 -0.5390805 0.13283001 0.4445896 -0.28217977 0.14873803 0.5678089 -0.41735518 -0.4026783 -0.6227008 -0.006856997 0.31785852 0.54001576 -0.94122726 -0.37524712 -0.26115274 0.18652472
LW -0.8587209 -0.5043585 -0.12351256 -0.20319968 0.116958775 -0.061237045 0.6000502 -0.31971946 0.034030553 0.24191475 -0.046873096 -0.63126576 -0.35219836 0.12972395 -1.128324 -0.092783615 -0.16281399 0.013925596 0.11511246 0.2979573
CA 0.2556721 0.41046014 -0.84918493 0.21397044 -0.28149542 0.16896275 0.6519946 -0.4085905 0.23498335 0.4869975 0.14112493 -0.8051405 -0.05791348 -0.4453349 -0.0912086 0.25404263 -0.6726804 -0.6371457 -0.2334827 0.27287608
EW -0.5945189 -1.2315141 -0.12117993 -0.07311112 0.012375044 0.07616494 0.57121634 -0.32282984 0.25181982 0.36608797 0.12307449 0.07550051 -0.09320244 0.06348871 -0.79330146 -0.22406712 -0.27728692 0.093546845 0.20044781 0.70517594
DW -0.91013646 -0.98587483 -0.08619178 -0.09934445 0.14137533 -0.16327347 0.5910489 -0.3508223 -0.089475155 0.4296899 0.35491085 -0.4416361 -0.12427159 0.4422216 -0.18938325 -0.21140544 -0.3851425 0.16284153 0.42805544 0.54763
WR -0.11378859 -0.73830134 -0.022683073 -0.17866334 0.17838049 0.24532181 1.1018375 -0.5404841 0.29365882 0.78126734 0.5360236 -0.012111536 -0.6414583 -0.09986886 -0.4344853 -0.4159908 -0.26158482 0.41062278 0.3450261 -0.078885205
MM -0.447786 -0.26441786 0.0061584245 0.50287086 0.32851198 -0.44647294 0.15281737 -1.1262786 -0.50291187 -0.45113564 -0.022665333 -0.18176794 0.28154618 -0.7434205 0.19722363 -0.40916586 -0.6400308 0.8124902 -0.17474476 -0.36884767
YM -0.45340607 0.28918847 0.07846566 0.055143576 0.07078536 -0.7406286 0.38903633 -0.5971263 -0.2325192 -0.63695866 0.22924702 -0.43446 0.24502626 -0.88212717 -0.09948916 -0.29450268 -1.1210392 0.45194435 0.3001515 0.54480875
DC -0.83520204 -0.38522622 -0.53687805 -0.033184044 -0.49083924 -0.14645123 0.35964012 -0.232133 -0.06229101 0.24004601 0.16086765 -0.7296309 -0.27947253 0.058421485 0.2984492 0.49740714 -0.6262429 -0.8536323 0.040446293 0.4209723
AW -0.9296961 -0.29145244 -0.38724113 -0.09181212 -0.026838442 0.61436903 0.6747297 -0.63970953 0.46795332 0.32164904 0.20388673 -0.10403241 -0.15438394 0.039544377 -0.574618 -0.46882278 -0.16074507 0.1506943 -0.0254588 0.788048
CD 0.08957031 -0.15399268 -0.3428552 -0.23453185 -0.48830658 -0.2990453 0.10534805 -0.30340526 -0.031937525 0.8009154 0.17533174 -1.2481104 -0.25450656 -0.41321024 -0.04820762 0.12510283 -0.37255707 -0.15621758 -0.5426166 0.61712426
TC -0.2328493 0.27600172 -0.22345999 -0.05517708 -0.51928157 -0.1670576 0.09276825 -0.15718758 0.01073691 0.26529148 -0.48625484 -0.4928938 -0.12666191 -0.7457764 0.008532002 1.1075085 -0.68530995 -0.8291183 -0.58440226 -0.007554514
CI -0.27730623 0.06387953 -0.27916923 -0.036602087 -0.7171947 -0.15786014 0.13031292 -0.59938896 0.5284068 0.91538596 -0.51634425 -0.93161714 -0.104363576 -0.0472381 -0.18926287 0.06637389 -0.8348325 -0.35377282 -0.2190221 0.14420499
YH -0.181409 0.14537394 -0.3833543 -1.025156 0.269476 -0.271851 -0.47032812 -0.3044047 0.33544806 0.09722948 0.818884 -0.33409786 0.4375808 -0.73961747 0.1333897 0.2007209 -1.3207798 0.12568243 0.092167936 0.072003186
CR 0.26896757 0.057099875 -0.03394634 -0.08297171 -0.5077475 0.05160224 0.5323809 -0.45393118 0.49225676 0.7684281 0.5280901 -0.6193252 -0.6829376 -0.6798562 -0.16214706 0.64623535 -0.53042996 -0.31360987 -0.22151998 -0.06823009
VW -0.94757104 -0.9027681 -0.17175356 0.2140473 0.34696743 0.30198687 0.4548554 -0.35287574 -0.09427501 1.0111538 0.18805082 -0.11441947 -0.3448424 -0.24839129 -0.5124351 0.04290628 0.13117215 0.19225453 0.048668906 0.3997753
WD -0.2781898 -0.73739725 -0.060288295 -0.3542618 0.111033596 -0.045916032 0.6274512 -0.22208863 -0.419491 0.79064727 0.45214474 -0.6834076 -0.23687641 0.030402256 -0.3784864 -0.7502119 0.00793334 0.25067478 -0.11577057 0.71469223
WA -0.05162474 -0.31259996 -0.77345705 0.27886125 0.27518868 0.43178242 1.0434248 -0.4784454 -0.06815338 0.57719004 0.40150177 -0.1627488 -0.10616756 0.19271517 -0.44727442 -0.54486465 -0.4221412 0.050267722 0.028400155 0.34199303
MY -0.3180009 -0.0710801 -0.3168966 -0.033351146 0.6231663 -0.47748986 0.16955997 -0.48460245 -0.15862226 0.056272306 -0.014396139 0.11700712 -0.30281827 -1.0277358 0.4565143 -0.451389 -0.95455724 0.77710146 0.04945395 0.26147854
RW -0.7389085 -0.66363436 0.5074053 -0.0044143857 0.11791655 0.30542797 0.5928221 -0.2970758 0.17305042 0.7057071 0.49255103 -0.056125622 -0.2472803 0.24189326 -0.95107484 -0.17040274 -0.4608706 0.099215 0.421551 0.18557079
HY -0.23317206 -0.35028368 -0.40818447 -0.34301767 0.7488738 -0.5480065 0.13993803 0.2659904 -0.25343686 0.5212052 0.10191598 -0.33426046 -0.517049 -0.9784591 -0.075707085 -0.040200617 -0.9176493 -0.29969126 0.4906002 -0.19910567
CP -0.35955536 0.16175242 -0.5653358 -0.036006603 -0.5536674 -0.4555972 0.90774405 -0.2132551 0.475294 0.95578575 0.33205748 -0.29473466 0.32222202 -0.5280066 -0.22818194 0.6526619 -0.44233885 -0.2938049 -0.18972194 0.15448184
NC -0.2921768 -0.1693172 -0.5180681 -0.11065628 -0.9519864 -0.11919055 0.27164495 -0.35567316 -0.12831207 0.5555875 -0.15226105 -0.058926232 -0.5056351 -0.4008472 -0.68176097 0.12471214 -0.820796 -0.7480468 -0.71440786 0.08316955
HM -0.30872858 -0.29714495 -0.31725818 0.3457286 0.49248907 -0.7151768 0.2655045 -0.7067756 -0.6146546 0.08235693 0.048653103 -0.6718437 -0.0059737777 -0.99688566 0.12826161 -0.12672688 -0.6879014 0.0062746885 0.44132954 -0.6680407
WV -0.3770048 -0.3630414 -0.43928194 0.25227728 0.25988388 0.26633394 0.51618177 -0.060873277 -0.07370168 1.0190243 0.7291681 -0.061475474 0.1501165 0.3138211 -0.86373883 -0.30505452 -0.45002905 -0.038864996 -0.2566216 0.594963
CN -0.4145688 0.3204245 -0.51981956 -0.3133188 -0.18350026 -0.18052578 0.2656911 -0.7513819 -0.19048528 0.48956585 -0.23339817 -0.17491578 -0.5804715 0.16742514 -0.43933836 0.5020809 -0.9050917 -0.61211145 -0.68566185 0.36052328
MH -0.09729748 -0.2799482 -0.45567536 -0.16351067 0.39509743 -0.16904588 -0.5366179 -1.1357822 0.15932961 0.041782122 0.54006916 -0.11839268 0.4475237 -0.654159 0.5050415 -0.083064094 -1.0005723 0.59821117 -0.29171976 -0.5356595
PC -0.80757725 0.5653593 -0.46062663 -0.32088655 -0.10984049 -0.12208639 0.5789773 -0.06636137 0.3874997 0.93938595 -0.12122092 -0.6416405 -0.11373721 -0.28274474 -0.4473624 0.7007314 -0.2627116 -0.3789283 -0.33736163 -0.20658587
WT -0.3583611 -0.54337907 -0.018233605 0.09781275 0.06347767 0.042873636 1.3323418 0.17159802 -0.59022796 0.7154161 -0.29240113 -0.34983373 -0.29494327 0.28921634 -0.78252923 -0.39073655 -0.2806637 0.060483098 0.22275656 0.34428826
FC -0.31134096 -0.110889405 -0.60613036 -0.30443615 -0.49521935 -0.1422839 0.88167924 -0.57530415 -0.4552927 0.1813312 0.19862774 -0.6599406 -0.5412499 -0.33656153 -0.04973068 1.0957186 -0.32916307 -0.32459092 -0.39540735 0.25909242
PW -1.050225 -0.10401801 -0.06128636 -0.38760555 0.46068954 0.11654652 0.72085917 -0.22134086 0.24471122 0.96397376 0.29249066 -0.17799506 0.031138591 -0.037185814 -0.74293894 -0.420225 -0.045787375 0.51303935 0.10562587 0.16248493
CF -0.5600604 0.11868316 0.20593837 -0.4853581 -0.9552938 0.16365239 0.39835337 -0.5525482 0.32937956 0.5516073 0.3560085 -0.70759183 -0.26363766 -0.31965265 -0.3212536 0.99691075 -0.37603524 -0.03170109 -0.45007524 0.31584638
CQ -0.34320542 -0.33814406 -0.8200499 -0.14679256 -0.63730985 0.106609456 0.306234 0.17036353 0.004665144 0.13001011 -0.26318312 -0.43983766 -0.23842797 -0.21378595 -0.25622264 0.96615267 -1.0481843 -0.07380446 -0.11800704 -0.025617298
IW -0.51909536 -0.63848835 -0.6331472 -0.7304698 0.18574373 0.35915685 0.77385074 -0.39287394 0.0795345 0.95844173 -0.22488616 -0.011430091 -0.3300736 0.42671672 -0.22503652 -0.14919993 -0.4791256 0.44470495 0.102157354 0.35371354
NW -0.60844296 -0.709538 0.12149 -0.26383457 -0.32720715 0.1069606 0.45644605 -0.42129904 -0.3003481 0.7916766 0.25722995 0.18953618 -0.3178348 0.009689889 -1.1181347 -0.64422035 -0.47306803 0.31524053 -0.24000023 0.28742653
WN -0.80765563 -0.58467823 -0.18642497 -0.5488052 0.46905366 -0.035806686 0.6204685 -0.6728403 -0.61179173 0.53356045 0.2327564 0.3216847 -0.46784538 0.46542245 -0.73654205 -0.3108867 -0.4997823 0.102535576 -0.11761694 0.27515084
TW -0.64356035 -0.3143305 0.34709695 -0.37719232 0.05388974 -0.3148161 0.39896983 -0.10276281 -0.11124044 0.37202826 -0.321461 0.06755375 -0.031032475 -0.5303133 -0.55228496 0.11367281 -0.24967816 0.010173135 -0.10337296 0.36260784
WI -0.6995185 -0.5924251 -0.17306936 -0.34114718 -0.09925917 0.2767386 0.5161208 -0.63628316 0.09055341 1.0938002 -0.43017894 -0.21812397 0.04417101 0.2720856 -0.46769214 -0.7384289 -0.63574094 0.31200042 0.42114556 -0.0007920525
YC -0.18427393 0.21980937 -0.39249748 -0.5321955 -0.4105257 -0.042408574 0.23847665 -0.21256258 -0.12686792 0.2374817 0.14003733 -0.53312266 -0.062320203 -0.47475702 -0.36226344 0.6154908 -1.3362358 -0.43987373 0.23900877 0.74977654
QC -0.05655672 -0.19195955 -0.7843996 -0.17357779 -0.3807442 0.39554876 0.2560723 -0.25853622 0.2225659 0.6041091 -0.58422893 -0.844092 0.18881571 -0.7017274 -0.73568356 0.6724187 -0.37970558 -0.11714549 -0.13699986 0.16361244
WP -0.67511314 -0.5212215 -0.4272125 -0.19467919 0.029943826 -0.31270865 1.2129353 -0.09429418 0.023646215 0.7831659 0.4552894 0.15483864 0.2763744 -0.0948062 -0.4402804 -0.38767585 -0.2490434 0.32286146 0.22667843 0.21514119
QW -0.28339463 -0.7646805 -0.07863924 -0.15155247 0.20227553 0.5920453 0.5188956 -0.35524723 0.04549352 0.8673345 -0.0023657784 -0.336194 0.29848728 -0.50549537 -1.2250799 -0.09238385 -0.14865534 0.6307857 0.42845482 0.18286481
CY -0.31030458 0.16785929 -0.52458507 -0.14594992 -0.21225236 -0.06393423 0.36234826 -0.030846275 0.22284284 0.6413744 0.08294002 -0.48273128 -0.83607846 -1.0160254 -0.4139121 0.4543977 -0.9109428 -0.46594602 0.14674114 0.60931057
WQ -0.69730383 -0.875006 -0.57496375 -0.01939006 0.3354992 0.59083766 0.8081627 -0.09918625 -0.36103326 0.35826623 -0.062231906 0.190104 0.053535577 0.32449228 -0.59743613 0.0136489775 -0.6309078 0.44665036 0.4734143 -0.009953493
FW -0.783205 -0.5669705 -0.12660046 -0.38120574 -0.031208614 -0.10104384 1.1093112 -0.58502 -0.71969754 0.4584452 0.33297896 -0.18283498 -0.3583498 -0.030168112 -0.45478606 0.36727905 0.006378268 0.4074755 -0.0848569 0.548453
WF -0.92803603 -0.44217375 0.19791743 -0.54298735 -0.47217852 0.35736912 0.9195178 -0.48389012 -0.18707708 0.4086765 0.07512886 -0.020804137 -0.16341984 0.124336794 -0.71430296 0.033252656 -0.034366164 0.49604833 -0.25643367 0.7618232
HC -0.1784235 -0.17759074 -0.6653889 -0.028910385 0.01526367 -0.23184943 0.15426476 -0.43349108 -0.30052826 1.0707694 0.23649627 -0.70626605 -0.2717677 -0.56195825 -0.18878141 0.6934637 -0.9033354 -0.9571708 0.26029676 -0.3838774
YW -0.45033923 -0.26279065 -0.03586277 -0.7289252 0.12930581 -0.086809985 0.68512607 -0.1277559 -0.033872526 0.36830476 0.13124561 -0.039142717 0.036017064 0.048644893 -0.93631244 -0.42436704 -1.1487716 0.2219653 0.59813553 1.021367
CH -0.27166757 -0.028214166 -0.7095431 -0.5577692 -0.25819057 0.054161828 -0.31239226 -0.74588376 0.50074077 0.83147746 0.530321 -0.5762582 0.055884823 -0.45876685 -0.12648739 0.6057869 -0.7477342 -0.66234607 -0.3542494 -0.17191516
MW -0.60865325 -0.7187534 -0.19160812 -0.081132375 0.13164517 -0.13946454 0.797553 -1.1466265 -0.3528477 0.3317665 0.14918432 0.07586153 0.39844602 0.00872088 -0.4706829 -0.68177295 -0.4086195 1.16307 0.18691185 0.086413935
WY -0.6613247 -0.44880772 -0.3245312 -0.30101836 0.5555927 -0.036917288 0.7677538 -0.22609013 -0.24971366 0.7618076 0.18865702 0.032809496 -0.6241264 -0.51952845 -0.5527287 -0.5319113 -0.6240997 0.12094444 0.6055045 0.8239313
CC -0.3337413 0.18239212 -0.5331395 -0.16960002 -0.5219898 0.08726315 0.5371436 -0.71839726 0.050633363 0.9526053 0.03515135 -0.8336402 -0.038125813 -0.46490312 -0.4194955 0.8369612 -0.6588974 -0.6783736 0.04128153 0.541793
CM -0.41524905 0.013385915 -0.24620737 0.45836958 -0.36445662 -0.624762 0.40716657 -1.2304566 0.027330613 0.36117107 0.016286168 -0.76506364 -0.15943217 -0.910471 -0.16221829 0.22007868 -0.5963 -0.20588663 0.12907481 0.27520582
WH -0.5289436 -0.5354228 -0.7420539 -0.601933 0.47714084 0.29009283 0.16263007 -1.3200126 0.16211708 0.86049736 0.9650996 -0.008968406 0.07251501 -0.24866357 -0.239101 -0.23240513 -0.40545908 -0.022834845 0.19822629 0.08246332
WM -0.68668664 -0.5233093 -0.13364913 0.6103657 0.14334373 -0.34231877 1.0212945 -0.99084496 -0.35592738 0.42293814 0.06232372 -0.124776036 -0.3510971 -0.28475305 -0.57165605 -0.72365266 -0.325097 0.33270818 0.30266345 0.038126096
MC -0.26227447 0.12151507 -0.5536228 0.20981643 -0.42295113 -0.4033373 0.32142028 -1.3763382 -0.45427603 0.29316965 0.053493947 -0.49716932 -0.10380457 -0.4706666 0.44340745 0.34293652 -0.9801224 0.3162696 -0.22210908 0.1251815
HW -0.45498124 -0.7838113 -0.3283142 -0.48966703 0.6058994 -0.3075859 0.35294035 -0.42517847 -0.48873577 1.1175871 0.2988913 -0.4601124 -0.023372239 -0.14304768 -0.6618728 -0.17018771 -0.69829625 -0.078429125 0.76150304 -0.012715722
WC -0.46469957 -0.43224537 -0.71471035 -0.3648161 -0.17854398 0.4007416 1.063875 -0.7159234 0.051113117 0.9812687 0.12992783 -0.33009675 -0.42328173 -0.21998459 -0.77164775 0.30103594 -0.43550104 -0.4349284 0.5106465 0.67689323
WW -0.62913907 -1.0098224 -0.20517619 -0.064389646 0.16096756 -0.113223806 0.9976021 -0.40865377 -0.26920396 0.69498503 0.2650189 -0.04856823 -0.24279003 0.06072517 -1.1146823 -0.44878194 -0.44536704 0.23778471 0.50839406 0.6228832
CW -0.5850319 -0.19662608 -0.35617256 -0.3627904 -0.41515195 0.13227305 0.91929835 -0.66330254 0.20488663 0.96435076 0.24113938 -0.27075374 -0.3156244 -0.15943821 -0.8808392 0.12133477 -0.4551045 -0.4072545 0.29015505 0.5989316
